GIS
1
0.0
8
O
I-ORG
I-MISC
I-PER
I-LOC
B-LOC
B-MISC
B-ORG
54
70116 0
1770 0 1
218 0 1 2
22 0 1 2 3
121 0 1 2 3 4
3 0 1 2 3 4 6
2 0 1 2 3 6
124 0 1 2 4
1 0 1 2 4 5
1 0 1 2 4 6
2 0 1 2 6
111 0 1 3
53 0 1 3 4
1 0 1 3 6
124 0 1 4
1 0 1 4 5
2 0 1 6
1185 0 2
54 0 2 3
19 0 2 3 4
2 0 2 3 6
142 0 2 4
19 0 2 6
1520 0 3
81 0 3 4
750 0 4
5 0 5
9 0 6
7060 1
159 1 2
5 1 2 3
4 1 2 3 4
64 1 2 4
4 1 2 4 6
2 1 2 6
141 1 3
49 1 3 4
420 1 4
1 1 4 5
2 1 6
1 1 7
2399 2
47 2 3
6 2 3 4
2 2 3 6
50 2 4
17 2 6
12838 3
80 3 4
3057 4
1 4 6
23 5
30 6
15 7
102935
p=forensic:O
p=estudiantes:I-ORG
n=bild:I-PER
p=1932:O
n=breakfast:I-LOC
c=distributers:O
c=arm:O
c=clearly:I-PER
n=neths:I-PER
w[i]=hideout
c=offices:O
w[i]=embarrassing
c=fruits:O
n=henry:^
n=schemes:O
n=immune:O
n=doug:^
c=employ:O
p=+1.5:O
p=excavations:O
n=underperform:O
n=mins:O
w[i]=JOCKEY
n=flanker:O
n=commanders:I-MISC
w[i]=pursued
c=seek:O
p=+4.2r:O
c=72:I-PER
n=kerametal:I-ORG
p=unloaded:O
n=tonne:I-MISC
c=becomes:O
p=nuclear:O
n=combat:O
p=denouncing:O
p=sickened:O
p=indications:O
c=coming:O
w[i]=4:15.006
w[i]=finalists
c=businesses:O
p=key:I-PER
n=11-15:I-PER
n=2,002.9:O
w[i]=whipped
c=b:I-PER
p=frontier:O
n=ajaccio:O
n=pakistan:I-MISC
n=120,000:O
n=hitleresque:O
p=9373:O
p=loewen:I-PER
p=violations:O
p=applauded:O
n=10-8:O
c=safe:O
p=romantic:O
c=district:O
w[i]=pursuit
c=venture:O
c=5,124.053:O
c=feature:^
c=programmes:O
n=pride:O
n=explosion:^
p=expresses:O
w[i]=langage
p=bickering:O
p=237km:O
c=feature:O
w[i]=35-7/8
n=belgrade:I-PER
w[i]=HAT-TRICK
w[i]=philosopher
n=coat-tails:O
c=gloom:O
n=10,650,407:O
n=69th:O
c=stripping:O
p=slogans:O
c=migration:O
p=6.98:O
n=simpson:O
w[i]=29.896
n=487:O
n=ia:I-ORG
n=received:I-ORG
c=31st:O
n=overdone:O
n=coalition:I-PER
n=two-hour:O
w[i]=defamatory
w[i]=12pct
c=16-2:O
w[i]=shedding
p=bookshop:O
n=batted:O
n=5522:O
w[i]=masturbation
w[i]=Match
n=friday:I-MISC
w[i]=allocation
p=brentford:I-ORG
w[i]=48-43
c=loans:O
w[i]=directs
c=2,341.5:O
w[i]=31.081
p=13.18:O
p=yemen:I-LOC
n=10,650,407:^
c=.431:O
n=bvsc:^
c=shelter:O
p=simulated:O
c=72,464:O
n=fundamentals:O
p=4,200:O
c=1,400:O
c=0:10:I-PER
c=340.00:O
p=baku:I-LOC
c=subtracted:O
w[i]=extortion
p=climbs:O
n=4:24.660:I-LOC
n=victoria:O
n=queensland:I-ORG
n=forbidden:O
c=93.12:O
n=rice:O
p=disappointment:O
w[i]=16,935
n=crown:O
c=62:O
p=van:I-LOC
n=w265:O
c=figure:O
c=72:I-ORG
c=62:^
p=jewish:B-MISC
c=infuriated:I-LOC
n=active:O
n=hearts:I-ORG
w[i]=co-ordinator
c=8.07:I-LOC
c=35.0:O
w[i]=modarabas
p=.456:O
c=veterans:O
n=pontiac:O
n=policed:O
w[i]=penfriend
c=card:O
w[i]=hills
w[i]=pro-soccer
c=smaller:O
n=anyang:I-ORG
p=mortars:O
p=ak-47:I-MISC
c=trees:O
c=clarifications:O
p=dem:I-MISC
p=hitter:O
n=faltering:O
p=lubarskij:I-PER
w[i]=scepticism
c=colony:I-MISC
p=clips:O
n=nonstop:O
c=dissident:^
c=visiting:O
n=hyper-inflation:O
c=7.56:O
n=david:I-PER
c=domestically:O
p=village:O
p=function:O
n=underpopulated:O
n=jason:I-PER
c=27th:O
c=disappeared:O
c=3.2:O
c=sole:O
c=cif:O
w[i]=poorest
w[i]=144.5
p=15,400:O
w[i]=technicians
n=track:O
p=zealand:I-LOC
w[i]=ex-captain
c=historical:^
p=mismanagement:O
c=368-7:I-ORG
w[i]=14432
c=survey:I-ORG
p=q4:I-ORG
c=impunity:O
c=408-8787:O
p=list:O
n=kms:O
c=interest:^
p=widely:O
c=historical:O
p=ineffective:O
n=1-129:O
w[i]=erratic
p=seven-year-old:O
c=tested:I-PER
p=developers:O
c=280,556:O
c=spokeswoman:I-ORG
n=warnings:O
p=laying:O
c=anxious:O
n=+230.4:O
p=roosevelts:I-PER
w[i]=disposition
p=aims:O
n=zifa:I-ORG
p=ramshackle:O
n=installment:O
c=6.72:O
n=685,000:^
c=interest:O
c=first-team:O
p=apr-jul:O
p=usa:I-MISC
w[i]=ceasefire
w[i]=subscribers
n=switzerland:^
p=objections:O
w[i]=investment
n=unscom:I-ORG
c=logo:O
p=focused:O
c=18-18:O
p=breaks:O
n=switzerland:O
n=ending:I-LOC
n=privately:O
w[i]=1996-05-28
c=joke:O
c=thirds:O
p=weeks:O
p=4.45:O
n=15.19:O
w[i]=00.42
p=1,196:O
n=jim:O
n=350,000:O
c=rights:I-LOC
w[i]=volcano
c=channels:O
n=13/09:I-ORG
c=underwent:O
w[i]=legislature
n=jim:^
n=green:O
c=peoples:O
p=lodge:O
p=prayers:O
n=jars:I-LOC
c=last:I-LOC
p=debre:I-PER
p=483:O
n=seeded:I-MISC
p=uag:I-ORG
n=caracas:I-PER
w[i]=misleading
n=cover:O
n=track:^
c=officer:O
n=intensified:I-PER
p=totality:O
w[i]=7,047,000
c=abduction:O
n=surinam:I-PER
p=reveal:O
w[i]=percolating
c=politician:O
n=1,143:O
n=get:O
p=dipping:O
w[i]=fact-finding
w[i]=celebrated
p=rouble:O
p=eiden:I-PER
p=glass:I-PER
w[i]=celebrates
p=23-5-71-1:O
w[i]=199.56
n=co-producer:O
c=defuse:O
n=sell:I-LOC
c=fishermen:O
p=1931:O
w[i]=bottle-throwing
c=tax:I-LOC
c=compensatory:O
c=45.48:O
p=three-party:O
p=wanrooy:I-PER
c=red-haired:O
p=rationales:O
c=complete-game:O
n=darryll:^
c=1:07.258:O
w[i]=programmes
p=meligeni:I-PER
p=psychiatrists:O
c=highway:I-MISC
w[i]=199.71
p=strip:I-LOC
c=.578:O
w[i]=lifestyle
c=blackmailed:O
p=003:O
c=analogue:O
c=deliberately:O
c=gdp:I-LOC
w[i]=scattered
n=attempt:O
c=10.8:O
w[i]=auctioned
w[i]=COLLATED
n=move:^
n=simon:^
n=340:O
p=digest:O
n=imminent:O
n=maccabi:I-ORG
n=move:O
w[i]=two-lane
p=considering:O
n=ideologists:O
p=seared:O
n=slumped:O
c=motorcade:O
n=foods:O
p=149:O
n=ina:O
p=monitor:O
w[i]=48.96
c=protesting:O
n=departure:I-LOC
n=1990:I-MISC
c=upgrades:I-ORG
c=.432:O
p=bancomext:I-ORG
n=hussain:I-PER
p=equipment:O
n=colon:I-ORG
p=petition:O
n=madhumalla:O
c=269.3:O
w[i]=ought
p=hampered:O
p=gyor:I-ORG
c=7-0-24-2:I-PER
c=3.50-4.00:O
c=finalized:O
w[i]=Played
p=tightened:O
p=drachma:O
n=closet:O
n=39:O
n=1w:O
c=politics:O
p=microfilm:O
c=spokeswoman:I-PER
n=of:B-MISC
n=steamrollered:O
c=customers:O
c=335.00:I-ORG
n=bans:I-LOC
c=policemen:I-MISC
w[i]=violence
p=drew:I-PER
w[i]=Weighted
w[i]=48.61
p=ntv:I-ORG
n=deja-voodoo:O
n=1791:O
c=3,292:O
c=16-1:O
p=reprinted:O
n=made:I-MISC
n=aqaba:I-LOC
c=176:O
c=audacity:O
n=.565:O
w[i]=TOTAL-
n=maintaining:O
w[i]=toxic
p=meantime:O
c=civilised:O
n=succeeded:O
w[i]=Close
p=england-based:I-MISC
p=centers:O
w[i]=48.86
w[i]=energies
n=get:^
w[i]=awfully
p=rope:O
p=97.00:O
n=stalemate:O
c=gestures:I-MISC
c=weakened:O
n=mangala:O
n=removed:I-LOC
n=lb-11:O
w[i]=3:33.00
c=rouble:I-MISC
n=determining:O
w[i]=pursuing
n=jettisoning:O
p=creation:O
p=.455:O
w[i]=Political
w[i]=eighth-ranked
n=crashes:O
c=+381:I-ORG
p=zambian:O
n=yassin:I-LOC
w[i]=Measles
p=outfield:O
p=run-scoring:O
w[i]=Rebel
c=11.833:O
w[i]=lifting
c=+282.1:O
n=out:^
n=strategist:O
p=4.46:O
n=1.210-1.236:O
w[i]=FOUR
c=author:O
p=luehrs:I-PER
c=7-9:O
w[i]=Thirteen
c=runner-up:O
w[i]=anti-aircraft
c=3.3:O
w[i]=Monthly
w[i]=abreast
c=economics:O
w[i]=73.83
n=serbian:O
n=agronomist:O
n=innings:I-ORG
c=increasingly:O
n=compared:I-MISC
c=time-trial:O
p=enemies:O
c=chipping:O
n=serbian:^
c=clearly:I-ORG
p=popularity:O
n=depositions:O
w[i]=Crowds
p=frequent:O
w[i]=3:33.36
p=rampaging:O
c=30,700-30,800:O
c=61:O
n=import:O
n=producers:I-LOC
n=colorado:I-ORG
n=irreplaceable:O
w[i]=3:33.94
w[i]=explosions
n=scheduled:I-LOC
p=crowds:O
n=oj:O
w[i]=3:33.64
n=three:^
n=benito:O
w[i]=yards
c=nudge:O
n=ciller:I-LOC
p=scrapie:O
c=stage:O
w[i]=3:33.77
c=2,700:I-MISC
p=705m:O
w[i]=pumping
c=wildfire:O
n=vegetarian:O
p=226-1:O
w[i]=scorers
n=david:I-ORG
p=27.70:O
p=chiefs:O
p=4.252:O
n=measuring:O
w[i]=accusations
p=482:O
n=nine-month:I-PER
n=nfu:I-ORG
p=fifth-inning:O
n=dialogue:O
c=83.0:O
n=offering:O
c=clearer:O
w[i]=refining
n=revelations:O
n=imprisoned:O
c=systematically:O
c=25-8-61-1:I-PER
p=clawing:O
n=ruehe:^
p=commitee:O
n=looked:O
n=flamurtari:I-LOC
c=submerged:O
p=kv:O
c=47.99:O
p=co-owned:O
c=powered:O
w[i]=hinterland
w[i]=Local
c=shaky:O
n=.564:O
p=six-party:O
c=oportunity:O
n=south:^
n=1,000:^
n=lebanese:O
n=implemented:O
n=defender:I-MISC
p=complete:O
n=piped:I-LOC
c=starting:I-LOC
p=recruiting:O
p=jan-july:O
w[i]=operating
n=agriculture:O
w[i]=dressing-room
c=velodrome:O
n=improve:O
n=ambassador:I-ORG
n=agriculture:^
c=1,000:I-MISC
c=transmitter:O
p=87th:O
n=580,000:O
c=environmental:O
p=vow:O
p=motorcycle:O
p=bailey:I-PER
c=buyers:I-MISC
n=reason:I-ORG
n=happen:O
n=passion:O
n=moral:O
p=fieger:I-PER
w[i]=Selected
w[i]=operation
c=thinking:O
p=sixteen:O
n=thrust:O
n=5-240:O
p=symptoms:O
p=iii:I-PER
p=naish:I-PER
c=legislators:O
n=thus:O
p=lancashire:I-ORG
n=cuba:I-PER
c=rocks:O
w[i]=variable
w[i]=beryllium
c=ignored:O
w[i]=maximum
c=released:O
c=hollow:O
p=likkason:I-PER
n=bowel:O
p=malchugina:I-PER
p=adding:O
n=wednesday:I-LOC
n=solidere:O
c=seem:O
w[i]=assemblies
p=well-organised:O
c=provisionally:I-LOC
w[i]=divorces
n=h2:O
p=underwriting:O
n=scheduled:I-PER
w[i]=messages
n=longer-term:O
w[i]=23-5-71-1
c=0.98:O
p=complained:O
p=bills:I-ORG
c=is:I-LOC
w[i]=divorced
w[i]=zero
n=nutricia:^
c=tell:O
w[i]=second-day
n=internazionale:I-PER
p=galvez-lopez:I-PER
n=coming:I-MISC
n=obey:O
w[i]=motorcycling
p=beaver:I-PER
n=middle-aged:O
p=connected:O
p=148:O
c=roadblock:O
c=expenditures:O
n=3-1:I-ORG
w[i]=anticipated
p=peacefully:O
p=altamira:I-LOC
n=momentum:O
c=212-859-1646:I-ORG
w[i]=Next
c=175:O
c=intervention:O
c=intended:O
n=rosario:I-ORG
c=challenger:O
p=stayed:O
c=yields:O
n=rich:O
n=closes:O
n=parma:I-ORG
c=eliminate:O
p=aged:O
c=residents:I-LOC
c=colourful:O
w[i]=170.680
n=closes:^
w[i]=fruit
n=third-placed:O
n=38:^
c=1:00.754:I-ORG
p=aloft:O
c=1716:O
n=therese:O
c=.575:O
c=1:55.645:I-ORG
p=door:O
w[i]=passed
w[i]=third-quarter
w[i]=stock
p=contaminated:O
n=radical:O
n=rwanda:I-LOC
c=cruise:O
n=8:00:O
p=6.96:O
w[i]=landmark
n=lapped:O
c=trek:O
n=co-chairman:O
c=6,310,000:O
w[i]=passes
n=4-6:I-LOC
n=shook:I-PER
w[i]=trading
c=struck:I-MISC
n=rouxel:O
c=floater:O
c=4.20:O
w[i]=skull
w[i]=sighted
w[i]=10,650,407
c=jury:O
n=2778:O
c=269:I-PER
w[i]=pollution
c=predicts:O
n=12,850-13,050:O
p=kombouare:I-PER
w[i]=Category
n=plays:O
n=lb-12:O
c=incompetent:O
p=boat:O
c=3.4:O
n=programmes:O
n=with:^
c=16.97:O
p=cis:I-LOC
n=fireworks:O
w[i]=146.2
c=certificate:O
p=jordanian:I-MISC
p=thin:O
p=construction:O
p=variety:O
c=lbw:I-PER
c=noticeable:O
p=kuperman:I-PER
p=congratulations:O
n=january-april:^
c=backlash:O
n=fought:I-LOC
p=laughed:O
c=60:O
c=colleague:O
n=369.00:O
p=parana:I-ORG
n=concerns:O
n=limits:O
c=deflating:O
w[i]=trawlers
n=scheduled:I-ORG
n=wataru:I-PER
c=watermelon:O
w[i]=221.857
w[i]=stoke
p=meanwhile:O
p=well-oiled:O
n=chain:I-MISC
w[i]=stole
w[i]=hints
n=necessary:I-PER
w[i]=in-house
n=29.2:O
p=parking:O
n=parts:O
c=scorers:O
c=8569:O
c=library:I-LOC
c=scorers:^
p=multinational:O
c=21,228.80:I-LOC
c=single:I-MISC
w[i]=stood
c=seen:O
p=vancouver:I-LOC
c=180.38:O
n=erik:I-LOC
n=innings:I-LOC
w[i]=stone
w[i]=articles
c=37.:^
n=gauge:O
p=babakova:I-PER
p=mugabe:I-PER
p=1935:O
c=12,850-13,050:O
c=knee:O
p=6000:O
w[i]=stool
w[i]=12th-ranked
p=arrows:I-ORG
n=averages:O
p=ethnically:O
w[i]=distinct
w[i]=seventh-seeded
c=factories:I-MISC
c=freezing:^
w[i]=extracts
n=coincidental:O
p=rysich:I-PER
w[i]=tribute
w[i]=store
c=hardships:O
n=handgun:O
p=modarabas:O
p=wrecked:O
w[i]=story
p=villefranche:I-LOC
w[i]=ARANYAPRATHET
w[i]=storm
p=4-8:I-MISC
c=orders:I-MISC
p=chimonetos:I-PER
n=storming:O
p=14.84:O
c=17,844:O
n=1315:O
p=285th:O
n=diarrhoea:O
p=nasr:I-ORG
p=.454:O
p=kambli:I-PER
w[i]=ringing
n=09/04/96:O
w[i]=muted
n=228.7:O
w[i]=duties
n=parma:I-PER
w[i]=surprising
c=quote:O
p=sightseers:O
p=27,535.5:O
p=39th:O
n=50,000-seat:O
c=slipped:O
w[i]=welcoming
c=all-time:O
w[i]=U.S.-bound
c=if:^
w[i]=CATCH
c=reported:I-ORG
n=insistent:O
n=second-largest:O
n=carrefour:O
c=if:O
n=susceptibility:O
p=wimbledon:I-MISC
n=fight:O
p=blind:I-PER
w[i]=viruses
w[i]=Looking
w[i]=837/763
n=2-98:O
p=routine:O
n=massacred:O
w[i]=reunification
c=fully-elected:O
n=sulphur:O
c=12.341:O
w[i]=serious
n=cocked:O
c=blasts:I-PER
n=heidrun:O
p=95.0:O
c=three-engine:O
c=searched:O
p=outs:O
n=overhauling:O
w[i]=rioting
w[i]=HEADS
w[i]=59th
c=21-11:O
n=electoral:^
n=charmaine:^
c=provision:O
n=enter:O
p=result:O
n=electoral:O
c=provision:^
n=penrith:I-ORG
p=stromsgodset:I-ORG
n=h1:O
n=fo:O
c=multi-ethnic:O
n=watermelon:O
n=dax:O
n=siraj:O
p=144.5:O
w[i]=twenty-second
w[i]=drilled
n=luminzu:O
p=dark:O
w[i]=curtain-raiser
c=jbri:O
c=incessantly:O
c=cheese:O
n=cac-40:O
w[i]=servicemen
c=expressed:I-PER
p=valuation:O
n=fourth:O
p=mistake:O
w[i]=Struggling
c=.576:O
p=pro-woman:O
p=contraction:O
p=barrier:O
p=impens:I-PER
n=methods:O
p=slept:O
p=makarova:I-PER
p=opportunity:O
w[i]=ministerial
w[i]=delivered
p=units:O
c=hovercrafts:I-MISC
p=accessible:O
w[i]=takings
p=accomplices:O
n=fervant:O
w[i]=2-0-14-0
c=bed:O
n=1:05.300:I-LOC
c=chooses:O
n=vow:O
c=utility:O
n=limits:^
c=174:O
n=rely:O
n=discouraged:O
n=clinton:^
n=grateful:O
n=molested:O
n=lovebites:O
c=7-11:O
w[i]=SCORES
w[i]=always
w[i]=motorised
w[i]=facto
c=call:I-MISC
n=sda:I-MISC
c=prairie:O
w[i]=destitute
c=phones:O
n=nigerian:O
p=nightly:O
n=nigerian:^
c=.430:O
n=mozambican:O
w[i]=victims
w[i]=submission
c=scale:O
p=delta:O
n=ross:^
c=kingdom:O
c=beat:O
c=28:42.26:O
c=vice-chairmen:I-ORG
p=beersheva:I-ORG
c=+6221:O
p=kundic:I-PER
c=whites:O
c=heavyweights:O
p=acceptable:O
p=draw:O
n=closer:O
p=srinath:I-PER
c=overbought:O
n=parent:O
n=parent:^
c=mountains:O
w[i]=greenbacks
c=vowed:O
n=adoptive:O
w[i]=investigating
p=35-23:O
n=clarifications:I-LOC
w[i]=32607.500
c=3.5:O
w[i]=19-year-old
n=gabon:O
n=marseille:^
c=score:O
n=16th-century:^
p=vouch:O
n=our:O
c=premiership:^
w[i]=investigation
n=damian:O
c=monthly:B-MISC
c=score:^
w[i]=talent
p=listed:O
p=gross:O
c=premiership:O
p=fremantle:I-ORG
c=balks:I-LOC
p=stricker:I-PER
n=40:I-PER
p=rein:O
w[i]=941-434319
c=hills:O
c=clinch:O
c=crucial:O
n=empoli:O
p=furlongs:O
n=pre-abnormals:O
p=1.210:O
n=z$:O
c=services:O
n=fully-elected:O
p=730:O
p=closing:O
c=75th:O
w[i]=1,294.5
n=42.00:O
p=touch:O
p=16th-century:O
c=services:^
n=firefighters:O
p=blocking:O
n=showing:I-PER
p=jacksonville:I-LOC
n=illegal:O
n=father-of-three:O
n=adversity:O
w[i]=Proceeds
n=dadabhoy:I-ORG
w[i]=brokers
w[i]=pastor
c=relive:I-ORG
n=bartoli:^
n=mid-season:O
p=goal:O
n=our:^
p=heap:O
n=13.42:I-LOC
c=3:54.87:O
c=jailer:O
c=5.05:O
n=marseille:O
c=35m:O
n=110th:O
c=44-20:O
c='ll:O
n=conf:^
p=cbot:O
p=swings:O
n=738:O
n=0330:O
w[i]=faces
n=ciments:O
c=establish:O
p=kerry:I-PER
p=mediterranean:B-MISC
w[i]=infuriated
c=brokered:O
n=materials:I-MISC
w[i]=faced
p=wa:B-LOC
c=10.6:O
n=headquarters:I-MISC
c=substantially:O
p=command:I-ORG
c=justified:O
p=cinnamon:O
p=tolerated:O
n=finland:I-LOC
n=suffered:I-PER
p=takings:O
p=describes:O
p=vivit:O
n=day:^
p=five-point:O
p=3.60:O
c=verdict:O
n=3-1:I-PER
c=care:O
p=.453:O
p=depend:O
p=salo:I-PER
w[i]=restaurant
n=sponsors:O
n=toluca:I-ORG
p=branch:O
c=popped:O
w[i]=confirmed
n=oh:O
c=abolished:O
c=60m:O
p=kanther:I-PER
p=regan:I-PER
c=advance:I-LOC
c=returned:I-LOC
n=reaction:^
c=calmed:O
n=puk-run:^
c=71.70:O
n=reaction:O
n=activities:I-PER
w[i]=district
w[i]=re-examine
w[i]=tackle
p=alsthom:I-ORG
n=spot:I-MISC
n=21.25:O
w[i]=spontaneous
w[i]=proclaimed
w[i]=jobless
c=0-50:O
p=47.2:O
c=activity:O
w[i]=Apparently
w[i]=warning
n=german:I-MISC
w[i]=refinery
p=seasonal:O
n=individual:^
c=preclinical:O
n=just:I-PER
c=frost:O
n=36:O
w[i]=refiners
c=pure:I-ORG
p=operated:O
n=protesting:O
n=diseases:O
c=quoted:I-ORG
p=partying:O
n=much:O
p=16th:O
w[i]=business
n=individual:O
w[i]=procure
p=sprint:O
c=roles:O
w[i]=utterly
p=lets:O
n=statehood:O
c=breezy:O
w[i]=ironically
c=defended:O
p=738:O
c=agronomist:O
p=226-5:O
p=ekeren:I-ORG
p=`serious:O
c=snooze:O
n=left-hander:O
c=form:O
n=healthy:O
n=fixture:O
n=quickened:O
c=withdraw:O
c=turn-out:O
c=10-1-36-2:I-PER
c=much-delayed:O
n=1,002:O
w[i]=38:34.682
c=tendering:O
p=58.98:O
w[i]=arrangement
n=22.94:O
w[i]=inquiries
c=fruit:O
n=waist:O
p=876:O
c=173:O
n=disturb:O
n=1994:I-MISC
p=35-inch:O
n=384-6364:O
w[i]=third-busiest
n=8.26:O
c=0.50:I-MISC
p=ca:O
c=66:O
c=concert:O
n=discovered:I-ORG
p=celtic:I-ORG
p=c$:I-MISC
p=pick:O
n=12.70:O
c=66:^
n=gymnasium:O
n=.424:O
p=impreza:I-MISC
c=merchants:I-MISC
n=half-yearly:O
p=guelfs:I-LOC
p=melli:I-PER
n=coverable:O
p=unprecedented:O
c=7:I-PER
p=commodities:O
n=removed:I-ORG
p=extras:O
p=action:O
p=cradle:O
p=throwing:O
n=manufacture:I-ORG
p=martens:I-PER
c=expressing:I-ORG
n=feeding:O
w[i]=remarks
p=birth:O
w[i]=petition
n=laid:O
w[i]=finalist
c=tap:O
p=breath:O
c=wins:O
w[i]=shelters
n=those:O
w[i]=ragbag
c=embassy:O
n=edgar:I-PER
n=srebrenica:O
c=cemetary:O
c=theft:O
c=raises:I-ORG
w[i]=2,284.86
p=reward:O
p=programs:O
c=rating:O
n=sun-drenched:O
p=higashi:I-PER
n=underwriting:O
c=70:I-ORG
c=veteran:I-MISC
n=14:59.70:I-LOC
c=imprisoned:O
n=goodwill:O
c=rating:^
c=believes:I-LOC
n=accordance:O
n=resulting:O
c=returned:I-PER
c=century:O
c=abroad:O
n=surinam:I-LOC
n=those:^
n=345:O
n=adrian:O
w[i]=scoring
w[i]=distract
c=road:I-MISC
c=tap:^
c=islanders:I-LOC
c=1.9:O
c=fact:O
p=15-20:O
n=ine:O
p=eindhoven:I-ORG
p=street:I-LOC
w[i]=strikeouts
n=foreldorado:I-LOC
n=tackle:O
c=169:I-MISC
c=refuelled:O
c=mafia-style:O
n=parisians:^
n=kwazulu-natal:O
w[i]=amenities
c=2-19:O
p=posters:O
c=reads:I-LOC
c=increased:O
c=.573:O
p=setubal:I-ORG
p=coincidental:O
w[i]=fiscal
c=improperly:O
p=1687:O
n=slobodan:I-MISC
p=rivero:I-PER
p=peronists:I-ORG
w[i]=CLOSING
p=wait:O
w[i]=Probably
c=18-14:O
n=0.85:O
c=lightning:O
c=squandered:O
n=fluid:O
w[i]=forints
n=replacement:O
c=sitting:I-PER
w[i]=underlying
c=cited:I-ORG
w[i]=minute
c=35,563:O
w[i]=cleaning
p=moult:O
p=levenson:I-PER
c=4,175:O
n=july-august:O
p=1.10:O
c=alien-led:O
c=57.50:O
w[i]=spoken
c=discharge:O
p=camping:O
w[i]=Constructors
p=1937:O
n=fenerbahce:I-ORG
p=fla.:I-ORG
c=60.0:O
c=builders:I-LOC
w[i]=parliaments
w[i]=out-of-court
n=suggestions:O
n=nd:I-PER
c=uniting:O
w[i]=Maybe
n=skill:O
w[i]=companions
p=tapie:I-PER
c=highest:O
w[i]=foresees
c=8.05:I-LOC
n=nottinghamshire:I-ORG
c=radioactive:O
w[i]=6700.00
p=crp:I-ORG
p=meadow:O
n=hansma:O
w[i]=incitement
n=abroad:I-MISC
c=sexually:O
n=gluten:I-LOC
w[i]=motorists
p=iii.ker.tve:I-ORG
c=regulate:O
p=upgrade:O
n=sympathises:O
c=lucky:O
n=body:I-MISC
n=mitsubishi:I-PER
w[i]=derivatives
w[i]=civilian
c=feedmillers:O
c=september:^
n=amsterdam-rotterdam-antwerp:O
c=101-member:O
n=long-term:O
c=7:I-ORG
n=edgar:I-ORG
n=listing:O
c=actively:O
c=september:O
c=raises:I-PER
c=outscored:O
n=challenging:O
w[i]=faded
c=70:I-PER
n=200-an-hour:O
n=costis:I-MISC
w[i]=movies
c=369.66:I-ORG
n=channel:I-LOC
p=33-for-90:O
c=field:O
w[i]=coal-mining
c=gun-wielding:^
n=we:I-MISC
c=9-0:O
n=desk:I-LOC
n=tikhomirov-maskhadov:O
c=02.777:O
p=valle:I-PER
w[i]=DECLARED
c=engineering:^
p=119.6:O
c=fuelled:O
c=engineering:O
c=forehead:O
c=education:^
w[i]=ringgit
p=.598:O
c=education:O
n=centres:O
n=yard:O
p=little:O
c=third:I-PER
c=10.5:O
c=boycotting:O
n=30:I-MISC
n=col:O
c=commentary:I-ORG
n=basuki:^
n=10-5:O
c=otherwise:O
w[i]=propaganda
c=grid:I-MISC
c=accusations:O
c=otherwise:^
w[i]=year-olds
c=8:17.94:O
c=counterparts:I-MISC
p=drafted:O
w[i]=welter
c=jcr:O
p=newest:O
p=alleging:O
c=10,650,407:O
n=quietly:O
c=ideological:O
w[i]=churches
c=10,650,407:^
p=property:O
w[i]=Week
p=toll:O
p=gather:O
c=commuted:O
c=gun:I-LOC
c=standby:O
w[i]=outskirts
p=no-nonsense:O
c=sauce:O
c=marked:I-PER
p=ubs:I-ORG
p=whistlestop:O
n=artillery:O
n=81,000:O
p=stransky:I-PER
c=interrupted:I-PER
n=nd:I-ORG
n=far:O
n=country:^
n=focus-news:I-ORG
c=material:O
n=bbl:O
n=8.25:O
p=487:O
c=detailing:O
w[i]=18,278
c=75,000:O
p=asian:I-MISC
c=union-based:O
w[i]=translators
n=dissolve:O
n=compared:^
n=1,003:O
n=collar:O
c=highest:^
n=outside:I-MISC
p=eusebio:I-PER
n=compared:O
n=resolutions:^
c=consequences:O
p=hat-trick:O
p=auchan:I-ORG
c=fledgling:O
n=upbeat:O
n=serving:I-PER
w[i]=orthodox
p=woodruff:I-PER
p=zilinskiene:I-PER
w[i]=149.1
n=embracing:O
w[i]=descendant
p=70.9:O
c=fortunate:O
p=outnumbered:O
n=insists:O
p=hear:O
p=leasing:O
n=hardly:O
w[i]=batsman
p=alarm:O
p=haarhuis:I-PER
w[i]=30,300-30,400
n=tang:I-MISC
c=two-time:O
w[i]=victory
c=populist:O
c=dissent:O
n=oscar:I-MISC
p=orgy:O
n=.423:O
c=pacemaker:O
n=12.211:^
c=0875:O
n=leverkusen:I-PER
p=caribs:I-LOC
n=first-team:O
c=fifth-placed:O
p=immediate:O
c=wishful:O
c=.574:O
c=revellers:^
c=tourism:O
c=3.7:O
p=lisheen:I-LOC
n=unfortunate:O
c=unq:O
c=973:I-MISC
p=subsidy:O
w[i]=camouflaged
n=344:O
n=alexandroupolis:O
c=revellers:O
c=1.8:O
c=agreement:I-ORG
c=rectify:O
p=60,960:O
w[i]=hired
n=comprehensive:O
c=aa+:I-ORG
c=65:O
n=kumara:I-PER
p=28th-ranked:O
n=siam:O
c=65:^
p=maniema:I-LOC
p=avoided:O
n=exploration:I-ORG
n=0.86:^
n=0.86:O
n=fought:I-ORG
n=decisions:O
n=just:I-ORG
w[i]=resigns
p=might:O
n=nunung:O
n=hearts:I-LOC
c=1,154:O
p=shipload:O
c=6,030:I-LOC
p=sunstroke:O
c=firms:I-LOC
p=turkey:I-LOC
p=ark:I-LOC
c=371:O
c=losing:O
n=colombia:I-PER
c=nervous:O
p=erratic:O
p=mongia:I-PER
p=khalq:I-ORG
w[i]=requirements
n=murderer:O
p=puk-run:I-MISC
n=note:^
n=vmig-1:O
p=zelesnik:I-ORG
p=over-charging:O
w[i]=dared
n=dennis:O
n=million-zloty:O
n=pay:I-PER
p=convinced:O
n=ernest:O
n=become:I-LOC
c=66-14:I-ORG
n=note:O
p=4th:O
n=happy:O
n=respirator:O
n=2-92:O
n=assemblies:O
n=tyndall:O
c=rallies:O
n=downgraded:O
n=.569:O
c=767:O
w[i]=246,077
c=paramilitary:O
p=15-21:O
w[i]=generates
p=infusion:O
w[i]=crisis
n=santiago:I-ORG
c=1.5520:O
w[i]=3-for-3
w[i]=3-for-4
w[i]=generated
n=snubbed:O
c=cruel:O
w[i]=2,343.00
c=territory:I-LOC
p=+1.2:O
n=22.95:O
c=official:I-ORG
p=whilst:O
p=.451:O
w[i]=maverick
c=speculation:^
c=jpr:I-PER
p=dani:I-PER
c=cataloguing:O
p=conversations:O
n=cheveley:O
n=caffeine:O
n=8:17.29:I-LOC
c=fired:O
w[i]=infected
c=agreed:O
p=birch:I-PER
w[i]=rain-soaked
n=850,968:O
w[i]=Well
c=speculation:O
n=clay:O
n=serving:I-ORG
c=virus:O
c=computers:O
c=tree:O
c=squabbling:O
w[i]=GIVES
p=appeared:O
n=ejected:O
p=tax-exempt:O
w[i]=34-20
p=kay:I-PER
c=18-15:^
p=serve-and-volley:O
n=returns:^
n=pilot:^
n=newsprint:O
n=newsprint:^
w[i]=alleges
p=santiago:I-PER
p=she'an:I-ORG
n=totalled:O
p=repricing:O
n=surrendered:O
w[i]=ringed
c=culminating:O
c=upgraded:O
p=tidy:O
c=considered:O
n=h.:O
w[i]=criminals
w[i]=alleged
p=viacom:I-ORG
p=cement:O
p=letter:O
p=1950s:O
n=championship:^
p=raining:O
c=homes:O
c=0.94:O
p=chechen:I-MISC
p=cambodian:I-MISC
c=dance:O
c=chequered:O
w[i]=uncertain
n=enforcement:O
w[i]=prospect
w[i]=recreated
w[i]=scholar
n=mcmanaman:I-PER
w[i]=coat-tails
c=54,600:O
w[i]=7-2-24-1
w[i]=SOYBEAN
c=ever:O
p=pictures:I-ORG
p=2,355.93:O
w[i]=34-48
w[i]=coach
p=engineering:O
p=rydz:I-PER
p=340:O
w[i]=pulling
p=babes:I-LOC
p=harmless:O
w[i]=irregularly
w[i]=fast-growing
n=wickets:O
w[i]=prostitute
w[i]=polluters
c=171:O
c=blocks:O
p=woodbridge:I-PER
c=re:^
n=gray:O
c=struggling:O
w[i]=sub-contracting
p=oujda:I-ORG
c=struggling:^
n=revelled:O
c=celebrate:O
p=missionaries:O
p=merely:O
n=packet:O
c=vice-chairman:I-ORG
p=.450:O
n=cairo:I-LOC
c=although:I-PER
n=interfering:O
c=quota:O
n=bodyguard:O
p=delivering:O
c=belief:O
p=seat:I-ORG
p=session:O
w[i]=survey
w[i]=FROM
w[i]=385-1-4557075
c=semifinal:O
c=3.40:O
c=govt:I-MISC
c=folly:O
n=where:I-ORG
n=.568:O
c=renew:O
p=provisions:O
n=12th-ranked:O
n=minn:I-LOC
w[i]=FREQ
c=flew:O
p=miller:I-PER
c=shoot-out:O
p=accurate:O
c=requiring:I-LOC
p=sandstod:I-PER
p=background:O
c=ordinary:O
c=bomb:I-MISC
c=3.8:O
n=brigita:O
w[i]=MEETING
n=silke:^
w[i]=FRCD
p=underperform:O
n=brigita:^
n=wsrl:^
p=pursued:O
c=1.7:O
n=healed:O
p=3-20:O
p=collstrop:I-ORG
p=generally:O
p=gorini:I-PER
n=spaniards:^
p=1,750-hectare:O
w[i]=audacity
c=writings:O
n=stretch:O
n=sixth:I-ORG
n=spaniards:O
w[i]=dancing
w[i]=41,752
c=64:O
c=death:^
c=64:^
c=death:O
w[i]=premiership
p=robles:I-LOC
n=ballots:O
c=balls:O
n=gulbuddin:O
n=conquest:I-ORG
p=lausgberg:I-PER
n=philip:^
p=85,000:O
c=renewed:I-MISC
p=sky:O
p=reelection:O
n=maintains:O
n=26.7.1996:O
n=philip:O
p=somebody:O
n=ivac:I-PER
p=slump:O
n=servet:O
n=detentions:O
p=low-level:O
c=proponents:O
p=dollar-buying:O
n=ivac:I-ORG
c=ridiculous:O
w[i]=alcoholics
p=rivers:O
c=pushed:O
n=override:I-MISC
c=minimum:O
n=genes:O
w[i]=approached
p=higher:O
c=unrepentant:O
n=serves:O
p=occupation:O
p=53,400:O
w[i]=traders
n=faustino:I-MISC
n=painted:^
w[i]=contol
n=5.50:I-LOC
p=inlaid:O
n=mahmoud:I-ORG
n=painted:O
c=arbitrage:O
c=gloomy:O
n=traded:I-LOC
p=haessler:I-PER
c=model:O
n=creedmoor:I-LOC
c=intercepted:O
w[i]=notation
n=beast:^
w[i]=critic
n=cover-up:O
p=unity:O
w[i]=penetrated
n=49,900:O
p=skilled:O
p=pre-tax:O
w[i]=whopping
p=birendra:I-PER
w[i]=followed
w[i]=together
c=official:I-LOC
p=feel:O
p=lineup:O
p=1,156.79:O
w[i]=smuggle
w[i]=vice-chairman
c=.571:O
p=african:O
n=agrins:I-ORG
p=road-building:O
n=historical:O
n=monetary:I-LOC
c=14-9:O
n=solvent:^
w[i]=looked
p=7:51:O
c=drill:O
p=coupled:O
c=brother:O
n=up-and-comers:O
p=ratio:O
n=returning:O
n=681:O
c=manhandling:O
p=contingency:O
n=republika:O
p=anchor:O
c=sense:O
c=9-2:O
n=albanian:^
n=test:I-LOC
n=serve-and-volley:O
n=04:I-ORG
c=remained:O
p=bills:O
p=schedeled:O
c=acclaimed:^
n=protection:O
c=venue:^
w[i]=vice-chairmen
n=soon:I-LOC
p=+225:O
c=venue:O
c=performed:O
n=repeal:O
n=vicenza:I-ORG
w[i]=visitors
c=stuck:O
c=captives:O
p=1.12:O
w[i]=Since
p=commited:O
n=cardiff:O
c=7-502:O
w[i]=3-11/16
w[i]=spoils
p=goalscorers:O
c=cereals:O
n=11.00:O
n=subtracted:O
p=zickler:I-PER
n=formal:I-LOC
n=7:46.91:I-LOC
n=join:I-PER
n=quell:O
p=colombia:I-ORG
p=boating:O
n=leander:O
p=signal:O
c=190,000:O
p=forsyth:I-PER
n=sixth:I-PER
p=circle:O
n=albanian:O
w[i]=38:34.999
p=probable:O
w[i]=awarded
p=valentine:I-PER
w[i]=campaign
n=cardiff:^
c=nominee:O
p=helibor:I-MISC
w[i]=restraint
p=equitas:I-ORG
w[i]=2-0-18-0
p=non-core:O
p=3.65:O
w[i]=gunshots
n=escaped:O
p=2130:O
p=solidere:I-ORG
c=170:O
c=overcame:I-PER
c=cause:O
c=0.95:O
w[i]=34.60
c=enters:O
c=nine-year-old:O
w[i]=hurl
n=stenning:O
w[i]=quake
n=40:I-LOC
p=game:O
w[i]=hurt
w[i]=entry
p=servants:O
c=approached:I-PER
n=sinead:^
c=striker:I-MISC
w[i]=moving
w[i]=irrelevant
n=himalayan:^
w[i]=Twenty
n=graafschap:I-ORG
p=second-longest:O
n=10-7:O
c=individually:O
n=himalayan:O
p=hails:O
w[i]=SPEED
c=examining:O
c=chants:^
c=1)266:O
n=amman:I-PER
w[i]=larger
c=122.5:O
w[i]=blackmailed
p=black:I-PER
c=hard-pressed:O
p=song:O
n=819.30:O
w[i]=blackmailer
p=litigation:O
n=aloys:^
n=talent:O
n=re-examine:O
c=arise:O
c=jv:I-ORG
n=7-220:O
c=memory:O
c=353078:O
w[i]=hunt
w[i]=telephone
p=ramprakash:I-PER
c=jobs:O
p=iberia:I-ORG
p=marxist:I-MISC
w[i]=stray
p=duel:O
w[i]=Monsignor
p=phan:I-PER
n=comprises:O
w[i]=RESTRICTS
w[i]=huge
w[i]=opportunities
n=ghibellines:O
c=3.9:O
n=reopen:O
n=charlatan:I-PER
p=bourlet:I-PER
n=bank:I-MISC
n=bottom:O
c=investigations:O
w[i]=senator
p=ravanelli:I-PER
n=positions:^
p=embassy:I-MISC
n=gideon:^
n=driven:O
c=1.6:O
p=fla.:I-LOC
n=nighttime:O
p=restructuring:O
c=sketchy:O
w[i]=outgoing
p=medicaid:I-MISC
n=greet:O
p=53-0:O
w[i]=extending
n=dse:I-ORG
p=specia:I-ORG
p=consulate:O
n=finland:I-PER
p=anatolian:I-ORG
c=send:O
p=gothenburg:I-LOC
n=+387-71-663-864:O
n=isolated:O
n=well:^
n=gt2:I-LOC
c=during:I-LOC
c=quoted:I-PER
n=gimnasia-la:I-ORG
n=blonde:^
c=tipped:O
n=memories:O
c=482-1003:O
p=u.n.-sponsored:I-MISC
p=sentries:O
p=shabwa:I-LOC
c=4.62:B-LOC
p=nationalistic:O
n=src:I-ORG
n=founded:I-MISC
c=muscular:^
n=photographs:^
p=failure:O
p=infectious:O
n=ryo:^
n=200:^
c=muscular:O
p=1992/93:O
n=led:I-LOC
p=heat:O
p=assured:O
w[i]=strip
n=hinchcliffe:^
n=refurbished:O
w[i]=genes
c=political:O
w[i]=Supply
p=partick:I-ORG
p=china:I-LOC
n=acrobatic:O
w[i]=shockwave
c=political:^
p=sdv:I-ORG
c=cooler:O
n=dimitrios:^
p=suisse:I-ORG
c=17.8.90:I-LOC
c=resumed:O
c=already:O
n=.421:O
p=bell:O
n=87th:I-PER
n=ambassador:I-LOC
c=soothed:O
p=cataloguing:O
c=32:I-ORG
p=26.00:O
c=what:^
w[i]=dated
w[i]=long-distance
c=parliamentary:O
p=represent:O
p=tv:O
c=bigger:O
c=brick:O
c=parliamentary:^
n=normalisation:O
w[i]=longer-term
p=percentage:O
c=shaved:O
n=notts:I-ORG
n=surrender:O
w[i]=42-year-old
w[i]=meaningless
c=what:O
n=photographs:O
c=fall:O
n=tents:O
c=7-15:^
c=fall:^
p=gen:O
c=stop:O
c=7-15:O
w[i]=Hundreds
p=ragbag:O
c=63:O
c=procured:O
n=server:O
c=end-of-season:O
c=re-nomination:I-MISC
c=wednesday:I-PER
n=recorded:O
w[i]=dates
c=63:^
c=60-day:O
p=+1.0:O
c=-docstart-:^
w[i]=Goalkeepers
c=knocking:O
p=seals:O
w[i]=zinc
c=multi-ethnicity:O
c=sold:O
c=38:19.313:I-PER
p=eindhoven:I-LOC
n=morelia:I-ORG
w[i]=accordingly
c=fast:I-ORG
p=greens:I-ORG
w[i]=experimental
p=sergio:I-PER
w[i]=enter
p=cleansed:O
c=modem:O
w[i]=compliance
n=developed:I-MISC
n=journey:O
p=resident:O
n=cuba:I-LOC
n=pitched:^
n=pitched:O
w[i]=swings
n=gabor:O
w[i]=loosened
n=jobless:O
w[i]=Conditions
c=emigrated:O
c=speaking:O
p=.595:O
c=survey:O
n=everybody:^
n=high-level:O
c=speaking:^
w[i]=REVENUE
c=predicting:O
p=survivors:O
w[i]=tensions
n=everybody:O
n=airports:I-LOC
p=institutional:O
w[i]=18,000
p=1.13:O
n=680:O
w[i]=STRAIGHT
n=locations:I-MISC
w[i]=causing
c=regarded:O
c=d'affaires:O
c=e-mail:O
c=9-3:O
p=declaring:O
p=therese:I-PER
n=forschungsgruppe:I-ORG
p=friedick:I-PER
p=away:O
w[i]=republic
p=conscious:O
p=crumbled:O
p=recommendation:O
p=5.602:O
c=anti-graft:O
c=2-16:O
n=63rd:I-PER
w[i]=after
p=scores:O
n=agreement:I-LOC
p=100:I-MISC
p=partially:O
n=though:^
p=incident:O
w[i]=210.00
p=nagyatad:I-LOC
n=though:O
p=surveillance:O
c=sight:O
n=cruising:O
n=directs:O
n=fogarty:^
n=presiding:O
n=capitalization:O
n=armenia:^
p=breathes:O
w[i]=infrastructural
c=admission:O
n=armenia:O
c=assailants:O
c=162:I-PER
n=cartilage:O
c=origin:I-MISC
p=cattle:O
p=somalia:I-LOC
w[i]=atmosphere
p=backdrop:O
p=phrase:O
n=waqar:I-PER
n=comeback:O
p=irresponsible:O
n=aimed:O
n=reforms:^
n=reinsure:O
p=revisions:O
c=payment:O
n=alec:O
c=565:O
n=laminates:O
p=680:O
n=reforms:O
w[i]=Because
p=zelic:I-PER
w[i]=preferred
p=severance:O
w[i]=contrary
p=98,000:O
n=flare-up:O
c=8.30:I-LOC
n=rabobank:I-LOC
n=group:I-LOC
c=considerable:O
w[i]=stuck
c=2:28.98:^
n=novelty:O
n=certainly:^
n=berth:O
p=far:O
c=2:28.98:O
c=political:I-MISC
c=pronounced:O
p=ethical:O
c=181,005:I-PER
n=certainly:O
c=jail:I-LOC
n=filming:O
n=marketings:O
w[i]=fails
p=1998d:O
c=loophole:O
n=o-157:^
w[i]=study
p=managerial:O
c=since:I-LOC
n=o-157:O
n=boeing:^
c=installations:O
p=lasting:O
p=bbl:O
n=celtic:I-ORG
w[i]=vouch
n=1,294.5:O
n=4:21.009:I-LOC
n=waiter:O
p=lie:O
n=restitution:O
n=145:O
c=bonus:O
w[i]=BULLION
c=12.5:O
p=microfiche:O
n=saeed:O
w[i]=eligible
n=83,008:O
p=146.2:O
n=supermarkets:^
n=supermarkets:O
p=forints:O
w[i]=semblance
c=208.442:O
n=similarly:O
n=internet:I-PER
c=censor:O
w[i]=featured
n=experimental:O
p=sorghum:O
p=2.00-2.25:O
w[i]=features
c=rest:I-MISC
p=wedge:O
w[i]=brother
p=load:O
p=robbers:O
p=1.215:O
p=potentially:O
p=middle-distance:O
n=4-200:O
c=since:^
w[i]=notice
w[i]=looting
p=prusek:I-PER
n=needs:O
n=abandon:O
w[i]=bonuses
c=since:O
p=14th:O
n=henke:I-MISC
n=pump:O
w[i]=unnerved
p=deposed:O
c=insurance:O
c=enough:O
p=indeed:O
w[i]=ground-floor
w[i]=one-match
n=without:I-ORG
w[i]=joint-venture
c=unlit:O
p=bankrupt:O
n=pa:I-MISC
n=bases-loaded:O
n=athens:I-PER
w[i]=10,204.87
c=pruning:O
c=whistlestop:O
w[i]=hyper-inflation
c=monetary:O
c=components:I-MISC
p=resembled:O
c=21:I-ORG
n=moment:O
c=favorable:O
n=cebit:I-PER
p=intercity:O
w[i]=father
n=98.00:O
n=missionaries:^
p=58.94:O
p=crusader:O
n=planting:I-LOC
n=1997-98:I-LOC
n=backing:I-PER
p=shareholders:O
c=waved:O
c=13.65:O
p=stance:O
c=unc:O
p=prod:O
c=226-5:I-LOC
w[i]=four-game
n=topolcany:O
p=ciller:I-PER
c=1:52.318:I-ORG
n=topolcany:^
n=bolts:O
c=famous:^
p=awaiting:O
c=region:I-MISC
n=carlos:^
c=junior:I-MISC
w[i]=permission
c=famous:O
w[i]=11361.330
w[i]=cemented
n=without:I-PER
w[i]=54th
n=0.200:O
n=copper:I-ORG
n=just:I-LOC
c=rings:O
n=bart:^
c=fiasco:O
n=while:I-MISC
n=olly:O
c=silver:I-MISC
p=0.20-0.70:O
n=wasim:I-PER
p=hate:O
n=liquidated:O
p=4.5350:O
c=10th:I-PER
n=hardest:O
w[i]=18,500
w[i]=contract
n=results:^
c=progressing:O
p=shortage:O
n=shared:O
c=secrets:O
c=publicly:O
p=chicago:I-LOC
n=shared:^
c=riots:O
w[i]=proudly
c=turnaround:O
p=implats:I-ORG
n=shaun:I-MISC
w[i]=surface
n=american-style:O
n=shops:O
c=orthodox:I-MISC
p=cruz:I-PER
w[i]=486.5
w[i]=rainfall
n=232-km:O
p=deliveries:O
p=2,400:O
c=breadth:O
c=5/1/98-02:O
c=3,200:O
c=brushed:O
n=frittered:O
p=kovasevic:I-PER
p=halted:O
p=greece:I-ORG
p=nestor:I-PER
c=optimised:O
n=castle:O
c=matters:O
p=societies:O
c=pace:^
w[i]=polishing
c=historical:I-ORG
p=briskly:O
p=zabrze:I-LOC
n=bosnia:I-LOC
w[i]=person
c=progressively:O
c=pace:O
p=downside:O
n=volkswagen:O
p=nice:I-LOC
n=section:O
p=nepotism:O
n=okinawa:O
w[i]=herself
c=outlawed:O
n=missiles:I-LOC
p=witnesses:O
p=castro:I-PER
p=ine:O
w[i]=world-class
p=weather:O
n=second-placed:O
w[i]=chequered
n=kaucuk:I-ORG
c=rift:O
n=yugoslavia:^
n=barton:I-PER
p=shelbourne:I-ORG
c=highlights:^
p=appeals:O
c=intraday:O
n=quarter-finals:O
n=31:^
c=getaway:O
c=highlights:O
n=encourage:O
c=250,000:O
w[i]=ounce
n=1:05.219:I-LOC
p=prayer:O
c=construction:I-MISC
w[i]=oblique
c=5:I-ORG
n=measured:O
n=lower:I-ORG
c=notably:O
n=hanmer:O
c=still-enslaved:O
n=swelled:O
w[i]=5644
c=4-95:I-PER
p=pnw:I-ORG
p=mestiri:I-PER
n=florencia:O
p=power:O
p=steamrollered:O
c=passenger:O
w[i]=phase
c=125m:O
n=litigation:O
p=wednesday:I-ORG
c=566:O
n=killing:I-LOC
p=cargoes:O
w[i]=scalp
n=colombia:I-LOC
n=doubts:O
w[i]=scale
n=george:I-PER
w[i]=scams
w[i]=minors
p=wright:I-PER
n=berti:^
n=marc-vivien:O
c=816:O
n=ironically:O
p=drunk:O
n=varteks:O
c=fulfil:O
c=13.66:O
p=height:O
w[i]=scans
w[i]=scant
c=telecoms:O
c=moments:O
c=1/9/95:O
p=alleged:O
p=ffk:I-ORG
w[i]=predictions
n=taken:I-MISC
w[i]=first-inning
w[i]=volume
w[i]=declaring
w[i]=photographers
w[i]=liberated
c=command:O
w[i]=fractionally
n=144:O
p=82-96f:O
n=24.50:O
w[i]=anchored
n=further:^
c=6700.000:O
n=5,060:O
w[i]=accuracy
w[i]=deeply
n=guides:O
n=further:O
p=stakes:I-MISC
p=afl:I-ORG
n=trawlers:O
w[i]=scare
w[i]=533153
w[i]=guests
c=7-0:O
n=joey:I-LOC
n=rates:I-MISC
p=examination:O
w[i]=WOMEN
c=scalp:O
p=45.3:O
p=georgalis:I-PER
n=analyst:I-PER
p=pushing:O
p=dominating:O
n=mario:O
w[i]=envoy
p=preclinical:O
c=opened:O
c=germ:O
p=dinar:O
n=gloucestershire:I-ORG
w[i]=garner
p=345:O
c=6,425:O
n=31.0:O
n=ob:O
n=aol:O
w[i]=voted
w[i]=investigators
n=organised:O
n=sharing:O
n=20000.00:I-ORG
c=celebration:O
p=baseball:I-MISC
c=looking:I-PER
w[i]=861723
n=crumbled:O
c=results:I-MISC
c=cusip:O
c=duty:O
n=resolved:O
p=euphoria:O
c=portends:I-MISC
n=570m:O
p=sketch:O
c=squash:I-MISC
n=whales:O
w[i]=seasonally
p=petrovic:I-PER
p=genetic:O
p=altogether:O
c=30.26:O
p=schultz-mccarthy:I-PER
w[i]=incorrectly
w[i]=withdrawal
c=5:I-PER
n=mitsubishi:I-LOC
n=boavista:I-ORG
w[i]=schools
w[i]=IMPACT-
c=1:52.354:I-ORG
w[i]=voter
w[i]=votes
n=dozens:O
p=swe:I-LOC
p=14,196:O
c=caused:O
p=pauli:I-ORG
w[i]=4:13.353
n=strasbourg:I-ORG
p=gathering:O
c=obtain:O
w[i]=commandment
c=are:O
p=taiwanese:I-MISC
w[i]=degrading
c=are:^
n=morocco:^
p=seventy:O
c=heard:O
c=invalid:O
n=luxembourg:^
n=2,616:O
p=farm:I-LOC
p=1-57:O
c=privatized:O
w[i]=gunman
w[i]=5565
n=m&r:^
c=measures:I-MISC
p=bak:I-PER
c=tranfers:O
c=und:O
c=copper:I-MISC
w[i]=53rd
n=absence:O
n=1:05.850:I-LOC
n=farming:O
c=accomplices:O
w[i]=5-for-5
p=sciandri:I-PER
p=guivarc'h:I-PER
w[i]=somebody
c=capacity:^
c=eavesdrop:O
p=airdrieonians:I-ORG
n=never:O
w[i]=18,623
c=capacity:O
n=.427:O
n=hijack:^
n=never:^
p=beja:I-LOC
w[i]=January-June
w[i]=accurate
p=ideal:O
c=12.348:O
p=tossing:O
p=scandal:O
w[i]=January-July
c=50th:O
c=elsewhere:O
p=granite:O
p=bangkok:I-LOC
n=told:I-LOC
c=elsewhere:^
c=aspect:O
c=costs:O
n=ounces:O
n=reported:I-PER
w[i]=Experts
n=grandstand:O
c=replacing:O
p=8.57:O
n=3.30:^
p=6.05:O
c=1:45.62:O
p=pioneers:O
p=comprehensive:O
n=sports:O
n=re-elected:I-MISC
p=ludwig:I-PER
p=panis:I-PER
n=iron:O
w[i]=notorious
c=weighted:^
n=stable:O
p=abbott:I-PER
w[i]=fruits
w[i]=55.1
c=official:I-MISC
c=weighted:O
p=lybrand:I-ORG
p=cellars:O
n=iron:^
n=nine-month:O
w[i]=allegedly
w[i]=historic
p=206,464:O
p=colombia:I-LOC
n=struggling:O
w[i]=cocoa
c=alarms:O
n=stretchered:I-PER
n=gain:O
c=impose:O
c=pumps:O
p=roofs:O
c=116th:O
c=111:I-PER
p=police-run:O
n=favor:O
c=communities:I-MISC
c=37,000:O
p=0.:O
n=unveiling:O
w[i]=5522
w[i]=gunmen
c=outright:^
w[i]=multidisciplinary
p=so-far:O
c=eyesight:O
w[i]=stumbling
p=cheques:O
w[i]=5511
n=threatening:O
w[i]=faith
c=vip:O
n=morocco:O
n=privatized:O
w[i]=5500
c=ours:O
p=distinct:O
p=copland:I-MISC
p=secession:O
c=nine-month:O
n=mauritius:O
w[i]=2:43.82
p=cyprus:I-LOC
p=eighteen:O
n=nana:O
p=nationals:O
c=421:O
p=fat:O
n=liberte:I-LOC
c=souls:O
n=convicted:O
w[i]=package
w[i]=Talking
p=sacking:O
c=7.50:O
p=jornada:I-ORG
p=decade:O
n=convicted:^
p=house:O
p=cake:O
n=recruiting:O
c=link-up:O
w[i]=Iranian-backed
n=impact:O
c=--:O
c=incitement:O
c=cultivation:O
c=solo:O
w[i]=popped
c=--:^
p=valdo:I-PER
n=wave:O
p=cannon:O
w[i]=2:43.44
c=13.67:O
w[i]=travels
n=quitting:O
p=41st:O
c=1:51.857:I-ORG
c=7-1:O
c=diet:O
n=trace:O
c=waits:I-PER
c=closes:I-ORG
n=fsu:I-ORG
p=1-10-100:O
n=05:30:O
w[i]=hits
n=animals:O
n=polonia:I-PER
n=1948:I-PER
n=365,000:O
c=minor-league:O
p=blockbuster:O
p=lasagna:O
c=illusion:O
n=minute:I-ORG
w[i]=6-mth
c=severance:O
w[i]=hive
c=forecast:^
c=gun:I-ORG
n=inconclusive:O
c=column:O
w[i]=happen
c=forecast:O
w[i]=vowed
c=continually:O
p=dewulf:I-PER
c=huf:O
c=underperform:O
c=advocated:I-LOC
n=oct:^
w[i]=includes
c=witnesses:O
n=sierra:I-LOC
p=crohn:I-PER
c=no-confidence:O
n=coffee:O
p=talent-laden:O
n=defined:O
c=toenail:O
n=oct:O
w[i]=included
c=witnesses:^
p=fastest:O
c=2.00-2.25:O
p=1930s:O
c=54,800:O
n=22.00:O
c=emtn:O
p=180,000:O
p=tirade:O
c=grueling:O
w[i]=mercenaries
w[i]=access
p=capitalization:O
n=collect:O
n=1990:O
w[i]=five-year
w[i]=Reviewed
w[i]=mountainside
c=somewhere:O
c=underway:O
w[i]=offering
p=344:O
p=quotations:O
n=annual:O
p=landed:O
w[i]=striking
w[i]=brackets
n=encouraged:I-PER
n=hawthorn:O
p=supermarkets:O
c=ineffective:O
n=pre-soviet:O
c=cathode:O
w[i]=first-time
n=lisbon:O
n=backyard:O
p=agrregate:O
p=8-10:O
n=placard:O
w[i]=pro-abortion
p=archaeologists:O
w[i]=2:43.18
n=+7.3;-3.6:O
c=aim:O
c=fines:O
c=1912:O
p=one-run:O
p=pesos:O
w[i]=2:43.06
n=dohuk:O
p=angels:I-LOC
c=sex:O
w[i]=importing
n=prosecutor:^
n=horrors:O
c=fly:O
p=kpc:I-ORG
n=220,000:O
n=appeal:^
p=funk:I-PER
p=derby:I-ORG
c=0.20-0.70:O
c=firms:O
w[i]=5452
c=1913:O
c=thanks:O
n=turkey:I-ORG
p=deported:O
n=minute:I-PER
p=obsession:O
n=fate:^
n=fate:O
n=disease:I-PER
p=problems:O
w[i]=prosecution
n=salary:O
c=although:I-LOC
w[i]=paramilitaries
n=delinquency:O
c=democracy:O
c=1-for-2:O
w[i]=minorities
c=ship:O
w[i]=5432
p=smiley:I-PER
p=pinch-hits:O
p=pornography:O
p=brackets:O
w[i]=valuation
p=tretschok:I-PER
n=3,850:O
n=appeal:O
p=executions:O
c=uncertainty:O
c=shareholers:O
c=second-round:O
c=undergo:O
w[i]=silent
c=unleashing:O
c=wrong:O
p=flesh:O
c=caves:O
n=.426:O
n=adon:O
w[i]=evasion
c=rural:I-LOC
p=additional:O
c=seven-hitter:O
p=cindana:I-PER
w[i]=routed
w[i]=accept
n=2/9:I-ORG
n=norihiko:^
n=court:^
p=unfriendly:O
w[i]=routes
n=joost:O
w[i]=SPONSORS
c=expect:O
c=11,594.99:O
c=100-2:I-LOC
n=von:O
p=submit:O
p=156.00:O
n=environmental:O
c=[:^
c=52.53:O
p=electricity:O
w[i]=4,325-acre
c=40,989:O
p=fast-tracking:O
n=curled:O
n=buenos:I-PER
c=even:^
c=civic:O
p=jakarta:I-LOC
n=balakov:O
n=chanting:O
c=even:O
c=12.3:O
c=aboard:O
w[i]=scene
n=9.93:O
c=229-1:O
n=boss:I-LOC
c=faltered:I-ORG
n=lead-up:O
n=54.13:O
n=election:I-PER
p=bases-loaded:O
w[i]=assured
c=568:O
p=rangoon:I-LOC
n=attract:O
n=accomplice:O
p=bombing:O
w[i]=52nd
n=05/01/97:O
w[i]=sexually
n=widely-reported:O
c=behind:I-PER
n=sumitomo:O
n=+167,330:O
n=spa-francorchamps:I-MISC
n=sudan:I-LOC
n=53:I-ORG
c=breaker:O
n=23,500:O
n=pierre:I-MISC
n=hedged:O
p=effigy:O
p=officially:O
n=homers:O
c=crimes:O
p=wolverhampton:I-ORG
c=useless:O
n=demanded:I-PER
p=2-136:O
n=confusing:I-MISC
p=ing:O
n=5-3/4:O
p=calgary:I-LOC
p=strides:O
n=gloucestershire:I-PER
c=three-party:O
c=1.4935:O
c=foil:O
c=drunks:O
w[i]=182,887
p=27,246.5:O
n=ryder:O
c=control:O
n=2/94:O
n=voting:O
p=currently:O
w[i]=garlic
p=career:O
p=lb:O
p=belgrade:I-LOC
n=minimium:O
p=athletics:O
c=competitiveness:O
n=876:O
w[i]=drunksucker
c=7-2:O
w[i]=falls
w[i]=loudspeakers
p=scoured:O
c=january-june:O
c=convert:O
c=down:I-MISC
w[i]=pillaged
n=denounce:O
c=wednesday:I-LOC
w[i]=quest
w[i]=despite
n=without:I-LOC
c=january-june:^
w[i]=opening
p=instrument:O
n=cherbourg:O
p=resolute:O
p=plugged:O
w[i]=dollar
w[i]=147.159
p=valdes:I-PER
n=repaid:I-PER
w[i]=false
c=volatility:I-MISC
c=army:^
c=penetrating:O
n=theybers:^
n=000:O
p=viral:O
n=compares:O
w[i]=wielding
n=2:44.22:I-LOC
p=sub:O
p=israelis:I-MISC
n=contract:O
p=propaganda:O
p=political:O
n=contract:^
c=dies:O
p=gulf:I-LOC
w[i]=utility
c=benevolent:I-MISC
n=54,178:^
c=169:I-PER
n=730:O
n=pdi:I-ORG
p=000s:O
p=whistle:O
n=karin:O
c=1/32:O
n=manaus:O
p=consequences:O
c=79.9:O
p=mutola:I-PER
n=30-year-old:O
n=146:O
n=frigid:O
p=ballybunion:I-ORG
c=tried:O
n=neal:I-PER
n=latter:O
w[i]=clause
n=bombers:I-MISC
c=backing:O
n=acquitted:O
n=possibility:O
p=moisture:O
n=indexations:O
w[i]=tournament
n=possible:I-LOC
n=argued:O
w[i]=big-screen
n=dust:O
p=presently:O
w[i]=quell
p=shape:O
w[i]=50th
p=cloete:I-PER
n=though:I-PER
p=badi-tondon:I-LOC
n=1:05.735:I-LOC
n=founded:I-LOC
c=torture:O
w[i]=Economist
p=locks:O
n=california:O
c=47.93:O
w[i]=individual
c=sinister:O
c=channelled:O
p=unscom:I-ORG
p=eradicate:O
w[i]=legislators
n=6,688,000:O
w[i]=punches
c=acct:O
p=mapei:I-ORG
p=tied:O
c=overshadowed:O
c=suspected:I-MISC
n=olo:O
w[i]=quartets
n=half-year:O
p=lunches:O
p=34-48:O
w[i]=deferring
n=investigators:I-ORG
c=straights:O
w[i]=343-8
p=faced:O
p=udovenko:I-PER
n=mismanagement:O
p=mass:O
w[i]=quarters
p=substantially:O
n=murdered:O
c=try:O
n=jean-pierre:^
c=thought:O
p=set-piece:O
n=43-year-old:O
n=jean-pierre:O
c=resumption:O
n=bars:O
c=career:I-ORG
n=loyola:O
w[i]=high
p=burea:I-ORG
p=fiscal:O
p=greece:I-LOC
w[i]=queen
p=face-saving:O
c=critics:O
c=critics:^
w[i]=112.56
c=amending:O
p=kohl:I-PER
p=300,800:O
n=tracks:I-MISC
p=imprisoned:O
n=98.9:O
c=coincidental:O
n=machado:^
n=shedding:O
p=sometimes:O
n=tatyana:^
n=mortgage:^
n=semi-final:O
n=mortgage:O
n=group:I-PER
p=riviera:I-LOC
p=associate:O
w[i]=galeforce
n=tatyana:O
n=resign:I-PER
n=mad:I-LOC
n=kdp:O
n=ex-div:O
c=chardonnay:O
w[i]=fearing
c=revolvers:O
w[i]=20-22
n=russian-chechen:O
p=74-0:O
w[i]=51st
c=shortages:O
n=denied:I-MISC
n=republican-controlled:O
p=goldiner:I-PER
n=5.2420:O
c=bird:O
w[i]=hide
n=kdp:^
n=5.83:^
w[i]=2,020.82
n=aronkasei:I-ORG
p=107.55:O
c=above-normal:^
c=resign:I-PER
n=bowed:O
n=204.74:O
p=applause:O
c=facilities:I-MISC
n=9-0:I-ORG
w[i]=FEES
p=elected:O
w[i]=drinkers
n=veer:O
w[i]=noting
n=rudar:I-ORG
c=continues:O
n=polonia:I-ORG
n=.425:O
n=urdu-speaking:O
c=elbow:O
c=06/01:^
c=speed:O
c=engaged:O
n=balakow:O
c=12.2:O
c=diets:O
c=controlling:O
c=testify:O
c=separating:O
c=569:O
p=u.s.-sponsored:I-MISC
c=100no:O
n=fad:O
p=taught:O
n=assaults:O
c=derives:O
w[i]=someone
c=acts:I-ORG
c=shack:O
c=wrote:I-LOC
c=separate:O
n=fallah:O
p=1,305:O
c=8.32:O
n=vialle:^
p=934:O
n=18-year-old:^
p=solemn:O
p=cruised:O
p=nice:I-ORG
w[i]=patches
c=32,700-32,800:O
n=2.6:I-ORG
p=sons:O
p=blanket:O
n=achieving:O
n=courtyard:O
w[i]=MOTOCROSS
w[i]=53.9
p=steal:O
w[i]=64ths-inch
c=placings:O
n=illustrious:O
n=nb-13:O
c=391-seat:O
p=108.4**:O
n=edgar:I-LOC
n=likes:O
p=pecs:I-ORG
w[i]=53-0
c=overcome:O
p=published:O
c=hearing:O
c=.439:O
p=0:04:O
n=broad:O
n=town:I-MISC
p=turns:O
w[i]=especially
w[i]=5:17
c=7-3:O
c=humpback:O
w[i]=stomach
w[i]=denote
n=lietti:^
n=reserve:^
c=over-allotment:O
w[i]=snooze
n=selling:O
n=wasim:I-LOC
n=beers:O
c=1:50.727:I-ORG
c=persistently:O
n=denouncing:O
n=gaseous:O
w[i]=74-year
n=chips:O
c=daughter-in-law:O
n=togo:O
c=requested:O
w[i]=Outspoken
w[i]=attitude
c=december:^
c=]:O
n=483:O
c=tremendous:O
n=detection:O
n=+33:I-LOC
p=condemn:O
w[i]=style
p=p.m.:O
n=toenail:O
c=7-3:^
c=160:I-ORG
c=under-21:I-MISC
p=honved:I-ORG
p=mia:I-PER
n=3120264:I-ORG
w[i]=announced
w[i]=wicket
c=11.16:O
p=libor:I-MISC
p=system:O
w[i]=announces
c=nationals:I-MISC
w[i]=plunge
c=involves:O
p=thrown:O
n=developers:O
c=stalled:O
p=avenged:O
p=iacomella:I-PER
n=relating:O
n=733.75:^
c=.435:O
n=tehran:I-PER
n=halle:I-LOC
p=4.40:O
c=urgently:O
c=tarnished:O
w[i]=adjustments
w[i]=permanently
w[i]=momentous
c=kph:O
n=offences:O
c=rbls:O
p=stefanovic:I-PER
n=rkc:I-ORG
c=usage:O
p=cervera:I-PER
c=well:I-LOC
w[i]=withdrew
c=throat:O
c=called:I-ORG
c=former:^
p=684:O
c=talked:O
p=kasparkova:I-PER
n=where:I-MISC
n=17:I-LOC
n=search:O
n=003:O
n=ramshackle:O
p=+1.9:O
c=1910:O
p=corruption:O
p=uic:I-ORG
p=fan:O
n=distributed:O
n=technical:O
p=contest:O
p=momentous:O
p=22-6-56-2:O
c=76th:I-PER
c=airspace:I-MISC
p=1yr:O
p=event:O
n=deep:O
w[i]=20,300
p=preserved:O
p=recorded:O
n=st:I-MISC
w[i]=withdraw
n=gendarmes:O
c=hails:I-LOC
p=factions:O
n=1900:O
n=eight:I-PER
c=320.00:O
n=michigan:O
n=chairman:I-PER
c=catchers:O
c=refugee:I-MISC
c=farmers:I-MISC
w[i]=amusement
p=get:O
n=they:I-PER
p=markvart:I-PER
n=killing:I-PER
c=vehemently:O
n=5.50-6.00:O
p=cannot:O
c=metric:O
w[i]=pullout
c=coordinator:O
c=21,718:O
c=selectors:O
w[i]=CHAMPIONSHIPS
p=standings:O
n=cleaning:O
c=suspicion:O
c=dark-brown:O
w[i]=mortars
p=attended:O
n=alert:^
w[i]=Teams
n=survived:O
w[i]=20.00
n=bbc:O
n=4:02.67:I-LOC
p=chamber:O
p=cordova:I-PER
c=source:O
w[i]=unwilling
c=source:^
p=ceremonial:O
n=handover:O
c=emotions:O
c=expertise:O
w[i]=MORTGAGE
p=kms:O
n=bentsen-era:O
p=unlike:O
c=straight-set:O
c=incredulous:O
w[i]=reading
p=nicaraguan:I-MISC
p=204:O
w[i]=infamous
w[i]=breeders
w[i]=20.45
n=leeds:O
w[i]=20.48
c=crab:O
w[i]=20.42
n=fake:O
w[i]=20.43
n=laurent:I-LOC
c=mismanagement:O
w[i]=moderate
n=year:I-MISC
p=challenge:O
n=contaminated:O
c=pitches:O
w[i]=reeling
w[i]=20.37
p=hoarse:O
n=11-15:I-LOC
w[i]=readily
w[i]=famed
w[i]=frontier
p=1948-52:O
w[i]=skirmish
w[i]=self-styled
c=industry:^
p=thrilled:O
w[i]=Supermarkets
w[i]=20.21
c=industry:O
n=glamorgan:O
n=father:^
n=boddington:I-LOC
n=echoed:O
n=peace:I-PER
n=vols:O
w[i]=TROPHY
c=experiencing:O
w[i]=completely
c=fighting:O
w[i]=20.17
w[i]=20.19
n=politician:O
n=2385:O
n=fake:^
p=everything:O
c=since:I-PER
w[i]=20.81
w[i]=20.84
c=complaints:I-MISC
w[i]=overbought
n=ww:O
p=orthodox:O
p=107-10:O
w[i]=slain
w[i]=38:36.306
w[i]=western
p=226.859:O
c=6.:^
w[i]=1996/97
c=entirely:O
n=injured:I-PER
p=aces:O
n=leveilly:O
p=medical:O
c=plead:O
w[i]=58th
w[i]=26:43.53
w[i]=20.63
n=insistence:I-ORG
c=51.71:O
p=6.625:O
p=continually:O
c=faded:O
c=beach:O
w[i]=staging
n=47.93:I-LOC
w[i]=Colleagues
p=rewritten:O
w[i]=disqualify
c=3,684:O
n=nb-10:O
n=6.66:O
p=encyclopedia:I-MISC
n=calendar:O
c=entire:O
p=pre-abnormals:O
p=drnovice:I-ORG
p=isbank:I-ORG
p=earthquakes:O
c=december:O
w[i]=slams
n=reinsurance:^
p=1,500:O
c=pro-war:O
n=1935:I-ORG
w[i]=attributable
c=budgeted:O
w[i]=operators
p=vessels:O
p=reynoso:I-PER
n=audience:O
c=all-party:O
p=wahlen:I-ORG
c=7-4:O
c=tag:O
n=regulations:O
n=6-20:O
p=muratovic:I-PER
c=died:I-PER
p=chaouch:I-PER
p=mehrtens:I-PER
n=limelight:O
c=proximity:O
w[i]=slaps
n=stream:O
n=businesslike:O
n=1,184.0:O
c=searches:O
p=jeopardise:O
n=bases:^
n=wasteful:O
c=haunted:O
c=further:^
n=bases:O
n=nottingham:O
n=skopje:O
c=.436:O
n=skopje:^
n=482:O
w[i]=beneath
n=unguent:O
p=ransart:I-LOC
c=jeeps:O
p=novotna:I-PER
c=spokesman:O
n=kostas:O
n=manner:O
w[i]=66.6-68.4
n=parma:I-MISC
n=bournemouth:I-ORG
c=altered:O
c=spokesman:^
p=installing:O
p=huracan:I-ORG
w[i]=topped
w[i]=roadblocks
n=conc:O
w[i]=drive-through
n=slashed:O
w[i]=carnival
c=inquiry:O
n=rain-soaked:^
c=offered:O
w[i]=laboratory
c=inquiry:^
n=2,355.93:O
p=incineration:O
c=pack:O
p=listen:O
w[i]=capturing
w[i]=EARLY
c=falsified:O
p=pence:O
p=59th-pen:O
c=83:I-PER
p=moody:O
c=sightseers:O
w[i]=disappoint
p=tobago:I-LOC
p=4.41:O
n=adult:O
p=unload:O
c=since:I-ORG
n=tasmania:O
c=buyers:O
w[i]=doctor
n=peace:I-ORG
c=paved:O
n=lorries:O
c=confidential:O
c=buyers:^
p=2/32:O
c=overwork:O
p=fees:O
c=hurdle:O
n=yield:O
c=athletics:^
c=1960s:O
p=portfolio:O
c=reformist:O
c=brand:O
w[i]=93.12
c=further:O
w[i]=68.80
n=dissent:O
n=election:I-LOC
n=oversight:O
n=molotov:O
w[i]=differences
c=arms:O
w[i]=best-selling
w[i]=defensive
n=begin:O
w[i]=recruitment
w[i]=smallest
p=health-care:O
c=08/21/96:O
n=tabloid:^
p=often:O
p=dividends:O
w[i]=exports
n=wales:O
w[i]=Forwards
n=incidents:O
n=cancel:I-LOC
c=citizen:I-LOC
p=cfo:O
p=communists:O
n=8167:O
w[i]=actual
c=singer:I-MISC
n=cereals:I-ORG
n=expel:O
w[i]=topple
n=club:I-ORG
c=79:I-PER
p=monies:O
n=148:O
n=hiv:O
c=1464/96:O
n=aa+:I-ORG
c=holds:I-LOC
w[i]=Attendance
n=contributing:O
c=expell:O
n=lows:O
n=ecus:O
n=morphine:O
p=dechaume-balleret:I-PER
c=opened:I-LOC
p=first-week:O
n=677.98:O
n=202,593:I-LOC
p=reunification:O
c=blockbusters:O
p=sbf-120:I-MISC
c=ancestors:O
w[i]=rhythms
c=00--44-171-542-7947:O
n=ligier:^
c=85.26:O
c=overflying:O
w[i]=host
n=one-half:I-ORG
p=compulsory:O
n=papers:O
n=dislodge:O
n=hristo:I-ORG
c=overseas:^
w[i]=embassies
c=brand:I-MISC
n=sask:I-LOC
n=french:I-MISC
n=strained:O
p=countries:I-MISC
w[i]=hour
c=wounding:O
p=forecasts:O
w[i]=171.00
n=yarn:O
w[i]=wildly
w[i]=43,430
n=background:O
p=meditation:I-MISC
n=republican-written:O
p=quick-fire:O
w[i]=whatever
w[i]=Otherwise
n=ernesto:O
c=marketings:O
p=liberalising:O
w[i]=short-term
c=web:O
p=anderson:I-PER
n=fraction:O
c=16-6:O
c=1,600:O
w[i]=lock-out
p=economics:O
w[i]=disagreed
p=unconditional:O
c=investor:O
n=nb-8:O
c=hinterland:I-LOC
n=disgruntled:O
c=16.98:O
p=6.93:O
p=documentary:O
n=9000:O
w[i]=hope
p=high-level:O
p=energy:O
w[i]=three-year-old
n=wales:^
p=escalating:O
w[i]=moment
c=83:I-ORG
p=farmer:O
p=taxi:O
p=ottoz:I-PER
c=12.83:O
n=ferrying:O
c=driver:I-ORG
c=40s:O
c=425:O
w[i]=57th
n=rwanda:I-PER
c=330-member:O
c=bombers:O
w[i]=shirtfront
c=10-3/8:O
c=third-placed:O
n=liberalising:O
c=underground:O
n=procure:O
p=delighted:O
n=removed:^
w[i]=respirator
p=risked:O
p=cultivation:O
c=1:50.980:I-ORG
w[i]=hold
p=smets:I-PER
w[i]=undersecretary-general
w[i]=hole
w[i]=holy
p=bearded:O
p=seguy:I-PER
c=5:I-LOC
c=persuaded:O
w[i]=home
w[i]=EARNS
p=merit:O
p=barry:I-LOC
n=jimmy:O
n=mode:O
n=deducted:O
p=harris:I-PER
n=90-minute:O
p=sampras:I-PER
p=dollar:O
c=called:I-PER
c=brokers:I-LOC
w[i]=eyebrows
p=8-15:O
c=departments:O
n=chain:O
p=overrun:O
p=bred:O
p=holzgerlingen:I-LOC
c=7-5:O
n=largest:O
p=53.706:O
n=articles:O
n=fear:^
w[i]=hogs
c=penultimate:O
c=b-:^
c=12.0:O
n=stuttgart:I-PER
p=metrostav:I-ORG
p=chimed:O
c=unfairness:O
w[i]=meningitis
n=lockhart:I-ORG
n=highest-ranked:O
w[i]=delivery
n=nb-11:O
n=four-hour:O
n=fear:O
w[i]=delivers
n=fitting:O
c=pounds:O
n=wv:O
n=0.8584:O
c=athlete:O
c=3830.000:O
p=mosque:O
c=6-:O
c=6-:^
w[i]=quickly
c=7-5:^
p=aviv:I-LOC
c=publishers:O
c=24th:I-PER
n=uti:O
c=jewelry:O
c=befriended:O
w[i]=sponsored
w[i]=Announcing
n=clyde:I-ORG
c=treasure:O
n=reprisal:O
n=norwich:I-ORG
c=endure:O
n=camouflage:O
w[i]=departure
n=wagons:O
p=allahu:I-PER
w[i]=homocide
p=clerck:I-PER
w[i]=WORKS
p=stake:O
n=property:I-ORG
n=yellow:I-LOC
n=fifth-stage:O
p=richterova:I-PER
w[i]=water-carrier
n=michelle:O
n=resolve:O
p=ab:I-ORG
n=michelle:^
p=roadside:O
n=reconvene:I-PER
c=frenzy:O
c=fields:I-ORG
n=yankee:O
w[i]=3-8/16
c=compression:O
p=tomatoes:O
w[i]=liberalising
p=packers:O
p=lacklustre:O
p=feet:O
w[i]=packers
c=aggregate:^
c=83rd:I-PER
c=3-mth:^
p=personally:O
n=scarce:O
p=1200:O
c=companies:^
p=planting:O
n=dionne:^
n=neighbour:O
p=ostracism:O
n=1652:O
n=mind:O
c=with:I-MISC
c=46.21:O
c=aggregate:O
n=founded:I-ORG
p=overlooked:O
p=congressmen:O
p=nobilo:I-PER
n=assailants:^
c=reshaped:O
p=stopped:O
w[i]=finalized
c=195.79:O
c=wife:^
c=wife:O
p=.459:O
w[i]=beings
p=index:I-MISC
p=guitarist:O
c=34:I-PER
p=04:O
w[i]=first-team
c=refinance:O
p=85th:O
w[i]=Postponed
w[i]=choosing
p=palma:I-PER
w[i]=FIRM
n=waters:O
w[i]=Lengths
n=wants:I-LOC
c=shares:O
p=fightback:O
p=syrian-lebanese:I-MISC
p=rome:I-LOC
p=fails:O
n=pipe:O
c=shares:^
c=fourth-seeded:O
c=holds:I-ORG
p=erroneous:O
n=4.10:O
n=richter:O
w[i]=206,464
w[i]=Earlier
n=kicks:O
w[i]=abstentions
w[i]=component
n=anti-graft:^
c=ambulance:O
p=metre:O
n=chavakachcheri:O
p=lives:O
n=bombard:O
n=takuma:^
p=logged:O
n=request:I-ORG
p=2.2-0-13-0:O
p=lorenzo:I-ORG
n=takuma:O
c=photographer:I-MISC
n=29.7:O
n=promoted:O
w[i]=strumming
n=release:^
n=thinking:I-MISC
p=welsh:I-MISC
p=6.08:O
n=fighting:I-MISC
n=edged:O
p=mexico:I-ORG
w[i]=34684
c=cocoa:O
p=under-21:O
p=paydate:O
p=dispelled:O
p=reservoir:O
n=property:I-PER
w[i]=protected
c=punch:O
c=8:12.04:O
n=padraig:I-PER
n=top-draw:O
c=membership:O
n=nb-7:O
c=11,175,000:O
n=shortly:I-LOC
p=38.11:O
n=reject:O
w[i]=proceeding
c=fantastic:O
w[i]=sulphur
p=ecological:O
n=trial:^
w[i]=command
n=5-12:I-PER
w[i]=sweetened
c=grouping:O
p=11.55:O
w[i]=gunned
c=insurgents:I-MISC
n=forked:O
p=manual:O
c=79:I-ORG
p=107-12:O
w[i]=147.786
c=fish:O
c=subway:I-ORG
n=trial:O
p=welcome:O
w[i]=elbowed
c=singled:O
w[i]=spotted
w[i]=pagares
w[i]=CONSENSUS
c=spots:O
c=lives:I-PER
c=pumping:O
c=210.00:O
c=426:O
c=mines:O
p=cries:O
n=analyst:I-LOC
n=stumbling:O
w[i]=CONTENTS
c=quick:O
c=screen:O
w[i]=20,167
c=number:O
w[i]=eavesdrop
c=number:^
p=quarterly:O
n=kabul:O
c=ends:I-ORG
c=boys:O
c=mines:^
n=element:O
n=middlesex:O
w[i]=56rd
p=bargain-hunting:O
w[i]=alongside
c=goals:^
c=tripled:I-PER
p=obvious:O
n=wraps:O
c=companies:O
p=tunnel:O
c=goals:O
c=alliance:I-MISC
w[i]=Tangible
n=georgy:O
c=cleared:O
n=request:I-PER
p=protection:O
p=dreekmann:I-PER
c=denied:O
w[i]=dedicated
c=7-6:O
c=broke:O
p=plus:I-ORG
p=aviv:I-ORG
p=marial:I-PER
n=western-organised:O
p=dense:O
p=10,725:O
w[i]=responded
w[i]=exposed
p=snap:O
p=meal:O
n=12-3:O
w[i]=467,000
n=8-120:O
w[i]=coerce
w[i]=confessed
n=mixing:O
c=organisers:I-LOC
n=determination:O
w[i]=complaining
n=begin:I-LOC
p=cardinals:I-ORG
w[i]=slavery
n=switzerland:I-PER
w[i]=compatriots
n=peacefully:O
c=health-care:O
n=aleix:^
c=seeking:O
n=critics:^
n=learned:O
c=7-6:^
p=trouble:O
n=critics:O
n=fourth-seeded:^
w[i]=1:40.227
c=81.5:O
w[i]=56th
p=dominion:I-PER
n=fourth-seeded:O
n=high-performing:O
c=coat-tails:O
n=st.:I-LOC
n=needy:O
c=246,077:I-PER
n=wellington:^
w[i]=preparing
c=preparation:O
c=coach:I-MISC
c=is:I-PER
p=relish:O
c=barges:O
p=front:O
c=challenged:O
n=frenchman:O
w[i]=volatility
n=todd:I-MISC
w[i]=index
c=close:I-LOC
p=75,632:O
n=nsdap-ao:I-ORG
p=bologna:I-ORG
p=revenues:O
n=sampdoria:O
c=affairs:I-MISC
c=5.00:O
w[i]=slash
c=published:O
n=prudently:O
p=away-goal:O
p=swerford:I-LOC
w[i]=off-speed
n=document:O
p=houteman:I-PER
p=sacrificed:O
w[i]=rounds
n=spell:O
w[i]=undated
w[i]=Official
n=eight:I-LOC
p=4:13.353:O
n=4-205:O
p=up-and-comers:O
p=681:O
c=lead:^
n=ubs:O
c=14432:O
c=.434:O
c=lead:O
p=emphasise:O
n=373-1800:I-ORG
p=philadelphia:I-LOC
c=sucked:O
w[i]=install
n=years:I-MISC
p=2913/92:I-MISC
w[i]=57.2
p=sadova:I-PER
n=oakley:O
p=reducing:O
n=19999.777:O
n=finnish:O
n=moving:I-LOC
p=tens:O
p=lebed:I-PER
c=subscribers:O
p=legalise:O
p=vmig:O
c=10.30:O
p=denmark:I-LOC
n=paedophile:O
c=qualifying:O
n=denounced:I-MISC
c=nine:^
p=incredulous:O
n=privatisation:I-PER
c=qualifying:^
n=accident:I-MISC
n=end:I-LOC
n=roest:O
c=basketball:^
p=certificate:O
p=embassies:O
n=chakravarty:I-ORG
p=credulity:O
n=359-2-84561:I-ORG
n=thought:^
c=brought:O
w[i]=acquired
p=criville:I-PER
p=identified:O
c=wintry:O
p=debut:O
c=contenders:O
c=basketball:O
p=project:O
p=birdie:O
c=doubling:O
p=bloc:O
p=amounted:O
p=non-callable:O
n=troubles:O
w[i]=quite
p=5.24:O
p=lights:O
p=tyrrell:I-ORG
c=looks:O
c=shrinks:O
c=container:O
c=840m:O
w[i]=Divisional
p=ill.-based:I-MISC
n=reluctant:O
w[i]=planning
c=targets:O
p=nbh:I-ORG
n=sky:O
n=protests:^
w[i]=LARGELY
c=dismissal:O
w[i]=withering
n=personnel:O
w[i]=dominant
n=40.0:I-ORG
n=stupor:O
c=elaborate:O
p=outdid:O
c=inhuman:O
n=capiot:^
n=yuuichi:^
c=13.64:O
c=heavy:I-ORG
n=falilat:^
p=hrw:O
p=benelux:I-LOC
n=firm:^
p=tense:O
c=interviewer:O
c=1,421.90:O
n=thought:O
c=meanwhile:O
w[i]=crimes
n=34684:O
p=pavin:I-PER
p=nsdap-ao:I-ORG
c=8,757:O
c=na=not:O
c=meanwhile:^
n=separated:O
n=approve:I-ORG
n=shoe:O
c=miner:O
c=raw:O
w[i]=interested
n=139.3:O
c=invoked:O
p=60.00:O
n=d'affaires:O
n=five-year-old:I-LOC
n=mines:I-MISC
c=178:O
n=19,500:O
n=appreciation:O
n=turkey:I-LOC
c=373-1800:O
p=forget:I-PER
w[i]=20,000
c=acres:O
w[i]=conman
p=50-cent:O
w[i]=so-far
c=sees:O
p=jumps:O
c=rookie:I-MISC
n=regard:I-MISC
w[i]=explosives
p=rokmeier:I-PER
w[i]=18,867
p=world:O
n=725,900:O
p=siemiatkowski:I-PER
n=facing:O
n=yekaterina:^
n=gen:O
n=case:I-LOC
c=wed:^
n=class:^
p=.457:O
w[i]=slammed
p=sivas:I-LOC
c=individual:^
n=class:O
n=digital:I-PER
n=gerard:I-ORG
c=single-a:O
c=tissue:O
w[i]=irregularities
w[i]=deserves
p=wars:O
c=assignments:O
w[i]=branded
c=removing:O
n=42nd:I-PER
c=kilometres:O
p=spitzbergen:I-LOC
n=left-armer:O
p=hentgen:I-PER
n=colo:I-LOC
p=favorite:O
p=experimental:O
p=8-13:O
p=long-time:O
p=ryo:I-PER
n=securities:^
w[i]=two-year-olds
n=feat:^
w[i]=dispatch
c=shipments:^
w[i]=quiet
c=3.1:O
n=eluded:O
n=gail:^
n=ahave:I-ORG
n=monica:O
c=picketing:O
p=adoption:O
c=rejoined:O
w[i]=hitting
c=prison:O
c=warmup:O
c=ends:I-PER
n=artillery:I-MISC
w[i]=lb-11
w[i]=lb-12
n=aflatoxin:I-ORG
p=dumping:O
p=mcmanaman:I-PER
c=34:I-ORG
n=sale:O
p=lumber:O
w[i]=quick
w[i]=570M
w[i]=hacks
p=fund:I-ORG
c=pitcher:O
n=formulated:O
c=indices*:O
w[i]=advised
p=trinations:I-MISC
n=russian-built:^
n=fifth-:^
n=5-187:O
n=nz:O
c=24.00:O
c=shipments:O
p=worsening:O
w[i]=ADVANCE
w[i]=55th
p=artificial:O
w[i]=adviser
n=crowd:^
n=they:I-ORG
p=nervousness:O
p=blackburn:I-ORG
c=forecast-:^
n=paralyzed:O
n=herve:I-PER
c=staged:O
n=crowd:O
n=17th-ranked:O
w[i]=303.19
c=jeopardize:O
p=influx:O
n=andy:O
n=become:O
c=using:O
n=andy:^
c=mummies:O
p=boutoille:I-PER
n=.429:O
c=941-8100:O
p=telo:I-ORG
p=yesterday:O
n=insistence:I-LOC
p=lorenzo:I-PER
p=lancet:I-ORG
w[i]=warehouse
n=restructuring:O
w[i]=earthquakes
p=likud:I-ORG
n=0.02:O
n=119.49:^
p=streda:I-ORG
p=erickson:I-PER
p=description:O
c=decisive:O
p=emergency:O
p=massive:O
p=price:O
c=mon:^
w[i]=pre-abnormals
w[i]=paedophile
n=213,989:O
n=constand:O
n=self-imposed:O
p=lima:I-LOC
n=outrage:O
c=lira:O
p=gabon:I-LOC
n=sali:O
n=lords:I-MISC
c=rule:I-LOC
c=end:I-ORG
p=basketball:O
p=insurgents:O
w[i]=817.60
c=2-1/8:O
p=overturned:O
n=dinamo:O
w[i]=complete
n=attributable:I-ORG
n=211:I-ORG
p=jackpot:O
n=bushland:O
n=good:O
p=wilkins:I-PER
w[i]=determining
p=antara:I-LOC
c=a:^
n=displaced:I-LOC
p=soviet-era:I-MISC
n=caves:O
p=8.50:O
c=moved:I-ORG
n=bribes:O
c=clocked:I-PER
w[i]=barrel
w[i]=paratroop
w[i]=barred
n=captured:I-PER
p=95.35:O
c=3-11/16:O
p=wherever:O
w[i]=non-management
w[i]=5-0-24-0
w[i]=sometime
n=clarksburg:I-ORG
w[i]=20,725
n=accompagnied:O
n=kuwait:O
c=turned:O
p=nomo:I-PER
c=nb-16:O
n=stg-plus:O
w[i]=systems
n=maine:I-LOC
p=fractionally:O
c=operators:I-LOC
w[i]=dubbed
w[i]=14.5-16.5
n=excerpts:O
w[i]=corpses
n=sent:I-MISC
c=front-line:O
n=astros:^
n=prairies:I-LOC
w[i]=refurbished
c=5-3:O
n=rand:^
n=accumulated:O
p=pitch:O
n=rand:O
p=looking:O
p=400,000:O
p=wigs:O
w[i]=600M
p=lowest:O
c=passage:O
n=stinnes:O
n=focused:I-LOC
n=publishers:O
n=critic:O
p=ripped:O
p=dortmund:I-ORG
c=displaced:O
c=a:O
w[i]=6000
w[i]=202-5
w[i]=strengthen
w[i]=feared
w[i]=sleep
n=vice-president:I-PER
n=378,000:O
n=obligation:O
n=faheem:O
n=previous:^
p=542:O
c=spotlight:O
w[i]=discharged
n=retain:I-LOC
w[i]=ridiculed
c=favourite:O
w[i]=605M
n=hicham:O
c=28.98:O
c=37.4:O
n=offices:I-LOC
c=favourite:^
p=babbel:I-PER
p=red-haired:O
w[i]=rental
p=overhead:O
c=complications:O
n=300,962:O
n=previous:O
w[i]=first-class
p=kick:O
p=stealing:O
c=13,000:O
c=172.7:O
c=downloaded:O
n=hicham:^
p=ballet:O
p=sardinia:I-LOC
c=last:O
p=today:O
n=grimsby:I-ORG
p=products:O
n=596.5:O
n=riverways:O
n=3/1/90:O
c=last:^
n=scoreboard:O
p=root:O
n=missiles:O
w[i]=relevent
c=988.2:O
n=1.70:O
w[i]=nc=acomparison
c=snubbed:O
c=completely:O
n=amount:^
n=ubimini:O
w[i]=risking
p=timely:O
c=jumpstart:O
p=scuffled:O
n=stephen:I-PER
c=armed:I-MISC
n=fueled:O
n=hitting:I-PER
n=toyota:I-ORG
c=airbase:O
c=autonomy:O
c=756525:O
n=zone:O
n=craig:^
n=depth:O
p=four:I-MISC
p=sugiyama:I-PER
p=momentum:O
p=12,700-12,950:O
w[i]=completion
w[i]=mutton
n=nervous:O
c=45:I-ORG
p=british-ruled:I-MISC
n=outpouring:O
n=amount:O
n=sultan:I-MISC
n=craig:O
n=demand:I-MISC
p=painful:O
n=parliament:I-LOC
n=400:^
c=limping:O
n=forcing:O
p=lebanese:I-MISC
n=pre-sale:^
n=400:O
c=alloy:O
n=batterby:O
c=ounces:O
c=drenched:O
n=bribe:O
w[i]=Evolution
c=alloy:^
c=message:O
w[i]=objected
p=semi-upright:O
c=want:I-MISC
p=meads:I-PER
n=gianfranco:O
w[i]=61.2
w[i]=61.5
c=53rd:I-PER
p=radulescu:I-PER
p=teasing:O
p=47-38:O
n=kristie:O
n=renominated:O
c=nationalistic:O
n=impose:O
w[i]=detention
p=queensland:I-ORG
p=fax+44:O
w[i]=61-2
p=5-365:O
p=smolders:I-PER
p=accordance:O
n=did:I-MISC
w[i]=slept
n=attempts:O
c=renewed:O
c=transmitted:O
n=attempts:^
n=1997:O
n=exits:O
p=1-1/2:O
c=year-half:O
n=depreciation:O
n=interfax:O
p=ideas:O
c=222:O
n=interfax:^
p=salvador:I-LOC
n=sadistic:O
p=venray:I-LOC
p=gun-wielding:O
w[i]=4:17.551
w[i]=debt-service
c=travel:O
p=ferhaoui:I-PER
n=150:O
p=jersey:I-LOC
w[i]=claims
p=smuggling:O
n=diatribe:O
p=n.j.:I-LOC
p=shore:I-LOC
w[i]=Defenders
n=ministry:I-LOC
w[i]=appoint
n=paramedics:O
p=bennett:I-PER
n=rescision:O
p=poised:O
c=0.12:O
c=leadership:I-ORG
c=unprecedented:O
c=12.88:O
n=+31:I-LOC
c=sweeping:O
n=female:O
c=freezer:O
n=nb-5:O
w[i]=Sixty
n=lanes:O
p=heroics:O
n=suffer:O
p=assailant:O
n=nominated:I-MISC
n=technology-based:O
n=appear:O
p=minnetonka:I-LOC
p=sheltering:O
n=viewing:O
c=1130:O
n=mapourdit:O
n=3/9:I-ORG
w[i]=firmer
w[i]=107-06
w[i]=progressive
n=confirmed:^
n=incomplete:O
c=capture:O
w[i]=107-10
c=conducted:I-LOC
p=bournemouth:I-ORG
w[i]=107-12
w[i]=Dearest
n=also:I-PER
p=welfare:O
n=aspect:O
n=editor-in-chief:O
p=coordinator:O
n=hubert:^
c=launch:O
n=documenting:O
w[i]=STANDINGS
w[i]=MATCHES
w[i]=factories
c=accused:I-PER
c=undermine:O
p=batters:O
c=14.0:O
c=celebrated:O
c=options:^
p=rewarded:O
p=sponsors:O
n=3-186:O
n=shotgun:O
c=options:O
p=3300:O
w[i]=anxiously
c=warrant:O
n=baltimore:O
c=minister:I-ORG
n=shotgun:^
p=aldi:I-ORG
p=therapy:O
n=diverse:O
c=king:I-MISC
n=kenyan:O
w[i]=GAME
w[i]=courtroom
w[i]=aircraft
n=outgoing:I-LOC
w[i]=majorities
w[i]=20,605
p=deletraz:I-PER
c=54th:^
n=mouscron:I-ORG
c=+1:I-ORG
n=forehead:I-PER
w[i]=Voting
c=54th:O
c=5-4:O
n=scattered:O
p=113.02:O
c=through:I-PER
n=baltimore:^
c=127.10:O
n=two-year:^
n=brains:O
n=two-year:O
c=allegedly:O
c=429,449:I-PER
c=analysis:O
w[i]=mingle
n=dawn:^
c=face-saving:O
w[i]=color
w[i]=colon
c=unavoidable:O
p=marathon:O
w[i]=markets
c=semifinalist:O
n=caroline:I-PER
n=caribbean:I-LOC
n=alain:I-MISC
p=00.42:O
c=anxieties:O
n=dawn:O
w[i]=useful
p=+361:O
c=37.5:O
p=iberfreight:I-ORG
w[i]=heir-to-the-throne
c=anxieties:^
n=same:I-ORG
n=official:I-LOC
w[i]=slowly
w[i]=activation
c=investors:I-MISC
n=unlisted:I-ORG
w[i]=charter
w[i]=smuggled
n=round-the-clock:O
w[i]=plunged
p=1992-95:O
n=exploded:O
n=netherland:I-PER
w[i]=plunges
c=announces:I-PER
p=optional-origin:O
n=vnukovo:^
n=nationalist:^
w[i]=intestines
c=soup:O
c=filings:I-ORG
w[i]=themselves
p=1873:O
n=auckland:I-PER
c=1980s:O
p=build-up:O
w[i]=758.75
p=terrified:O
p=14.00:O
n=rmt:I-ORG
n=khartoum:O
n=scored:I-MISC
n=peaks:O
c=wagons:O
p=83,801:O
n=troubled:O
n=318:I-LOC
p=freedom:O
w[i]=continue
p=sixes:O
n=auckland:I-ORG
c=buggy:O
n=5-7/8:O
c=developers:O
p=january-july:O
c=5,689.82:O
c=adoring:O
p=gunned:O
n=hectic:O
c=exploration:^
n=cancelled:I-PER
n=skills:O
n=menlo:I-ORG
c=through:I-ORG
c=jokes:O
n=ukraine:^
n=5,778.00:O
n=.623:O
p=managers:I-ORG
w[i]=cementing
p=right-field:O
p=kschwendt:I-PER
p=committees:O
p=291:O
c=hinting:O
p=abilities:O
n=cofinec:O
w[i]=diamond
c=steady-higher:O
p=bronckhorst:I-PER
c=exploration:O
n=cofinec:^
n=pipes:O
n=community:I-MISC
c=impossible:O
n=ibis:O
p=207:O
n=prostitutes:O
p=0.27:O
w[i]=60.0
c=disturb:O
n=dilemma:O
n=bound:O
p=5-220:O
p=pappas:I-PER
p=finns:I-MISC
n=1,086:O
c=waiter:O
p=estimates:O
n=psc:I-ORG
n=ministerial:O
n=sarah:I-ORG
p=8-:O
c=turn:O
p=u.n:O
n=motorola:I-LOC
n=fully:I-PER
p=reef:I-LOC
c=aa:O
n=lumir:O
c=spiritual:O
w[i]=farms
c=poultry:O
p=penh:I-LOC
p=rfdg:O
n=timber:O
c=221:O
c=adopts:I-ORG
c=unwound:O
c=half-time:O
w[i]=cabinet
p=strokes:O
n=20.45:I-LOC
p=redraw:O
n=orthopedic:^
c=issuing:O
n=pegged:O
c=formerly:O
n=nick:O
c=stages:O
n=nick:^
w[i]=raising
w[i]=deadlock
w[i]=farce
p=independiente:I-ORG
w[i]=progressing
w[i]=comparative
p=poured:O
n=claude:O
w[i]=barter
p=muscle:O
w[i]=various
n=explain:I-LOC
n=vied:O
n=down:I-LOC
p=fronts:O
n=earnings:I-ORG
p=mixers:O
p=2.78:O
c=announces:I-ORG
n=staying:O
c=49,269:O
n=tadeusz:I-LOC
n=unearthed:O
w[i]=projects
n=greece:I-LOC
n=295:O
p=12,900-13,150:O
p=tillman:I-PER
c=wanted:O
c=k-sheets:I-ORG
c=freight-tonne:O
c=54th:I-PER
n=pasok:O
n=1996:^
n=0.03:O
c=motorcycle:O
p=55,000:O
n=1996:O
p=reassess:O
c=0.13:O
n=nsanze:O
n=slipped:O
n=nigel:O
p=rusty:O
c=49.67:O
n=nb-4:O
c=hospitals:O
p=grill:O
p=none:O
w[i]=Among
w[i]=6.72
p=wood:O
n=10.14:O
n=outlook:O
p=stevens:I-PER
c=settlements:I-ORG
p=margins:O
n=creating:O
w[i]=6.64
w[i]=6.65
w[i]=6.66
w[i]=6.59
c=factory:O
c=limped:O
p=display:O
c=11.18:O
c=repo:O
c=cross:I-PER
n=gb:O
n=34:I-LOC
c=detect:O
p=stances:O
p=sultan:I-PER
n=superb:O
w[i]=----------------------------------
n=denmark:O
w[i]=6.48
w[i]=amidst
w[i]=according
n=famed:O
n=548:O
p=exchanger:O
n=denmark:^
w[i]=light
c=shipments:I-MISC
p=coetzer:I-PER
n=mohammad:I-PER
c=post-1997:O
c=smoothe:O
p=constant:O
w[i]=6.39
w[i]=likened
n=upcoming:O
w[i]=half-time
c=500cc:I-MISC
p=actions:O
w[i]=onlookers
p=opponents:O
c=month:O
w[i]=quicken
n=bosnian:^
n=faults:O
w[i]=slaughterhouses
c=5-5:O
p=commons:I-ORG
w[i]=465,000
n=bosnian:O
c=experiment:O
c=.633:O
w[i]=affect
c=involved:O
p=summon:O
w[i]=6.93
w[i]=61-year-old
w[i]=6.96
n=chaos:I-LOC
w[i]=6.98
n=13th:I-PER
c=digging:O
n=beatrix:^
p=springfield:I-LOC
n=warrants:O
p=government:O
w[i]=fatal
c=retained:O
n=3.25-3.75:O
c=2,002.9:O
n=kero:^
w[i]=ROWING
n=motorcycle:O
c=4-80:I-PER
w[i]=again
n=heinrich:O
w[i]=describing
c=taxpayer:O
w[i]=20,500
p=zanini:I-PER
w[i]=grants
c=8.18:I-LOC
n=natasha:O
n=italy:I-ORG
c=snatched:O
c=remaining:O
n=48,800:^
n=becomes:O
w[i]=including
c=routines:O
w[i]=0.0822
p=.500:O
n=assault:O
w[i]=idea
n=woman:^
p=521-8:O
p=resume:O
n=rickey:O
c=2843:O
n=treble:O
p=100.6:O
c=149.1:O
w[i]=includind
c=hunger:O
w[i]=0.0817
w[i]=looking
w[i]=6.30
p=leadoff:O
w[i]=6.31
w[i]=anti-constitutional
n=bedouins:O
c=leader:O
c=censorship:O
n=one-two:O
c=face:O
p=blank:O
w[i]=nobody
n=apartment:O
w[i]=flushed
w[i]=29.05
w[i]=6.17
w[i]=20,530
w[i]=76-year-old
n=residents:^
n=porto:O
p=stunkel:I-PER
w[i]=grounds
w[i]=198354.941
w[i]=6.03
w[i]=6.05
w[i]=6.08
w[i]=skidded
n=unconditional:O
p=squabbling:O
p=completes:O
w[i]=ordinary
p=kishinev:I-LOC
n=yvan:O
w[i]=6.00
p=better:O
c=c:O
n=shield:I-MISC
w[i]=229,360
c=15-share:O
n=switzerland:I-LOC
n=johnson:I-PER
n=perpetrate:O
c=easing:O
w[i]=acquisitions
p=refuelled:O
n=wholly:I-ORG
p=undisclosed:O
p=rush:I-PER
c=pitched:O
c=0.10:O
w[i]=REWARDS
c=68-76f:O
w[i]=54.13
p=brent:I-MISC
w[i]=comic
c=.:I-PER
n=881:O
w[i]=lifts
p=halves:O
n=slough:O
n=48th:O
w[i]=German-based
n=sui:O
p=.10:O
c=sour:O
w[i]=filming
p=japan:I-LOC
c=sector:O
n=2.58:O
p=5-68:O
c=swimming:I-ORG
n=nic:O
n=benetton:O
n=chiron:O
w[i]=conflict
c=two-goal:O
p=demolition:O
c=multiple:O
w[i]=tested
n=1999:O
p=23/96:O
p=12.4.1996:O
n=benetton:^
p=nic:O
c=220:^
c=220:O
c=36-46:O
c=stiff:O
p=uniform:O
w[i]=spotlight
n=definite:O
p=206:O
p=extensions:O
n=run:I-ORG
c=hindered:O
c=parliamentary:I-LOC
c=thief:O
n=financial:^
p=lecce:I-ORG
c=musician:O
p=willing:O
c=77th:I-PER
w[i]=architect
n=tm:I-LOC
p=abidjan:I-LOC
p=1970s:O
n=werner:O
w[i]=obliged
w[i]=peacefully
n=guarded:O
c=largest:O
c=aid:^
n=openside:O
c=leaders:I-MISC
p=hagner:I-PER
n=blast:I-PER
c=equipment:O
w[i]=historically
c=launch:I-MISC
c=under-fire:O
c=production-sharing:O
n=ask:I-MISC
c=aid:O
n=exemption:O
n=podujevo:O
n=61.64:I-LOC
c=doping:O
p=reed:I-PER
w[i]=indulged
c=4-217:O
c=28:I-ORG
w[i]=contacted
n=marcus:O
p=heartbeat:O
w[i]=comment
n=egyptair:^
n=marcus:^
n=italy:I-PER
p=henderson:I-PER
c=hefty:O
p=pure:O
w[i]=SQUASH
n=england:I-PER
n=egyptair:O
c=shall:O
c=acquisition:O
c=opening:I-LOC
n=justin:O
p=acatepec:I-LOC
n=intentionally:O
w[i]=Spin-bowling
p=transferring:O
p=16.50:O
w[i]=comes
c=68.80:O
n=desireable:O
n=bombarded:I-LOC
c=normally:O
w[i]=informed
c=compiling:O
p=felons:O
n=nb-3:O
p=nonetheless:O
p=cameras:O
w[i]=Imports
w[i]=Pfd-1
w[i]=Pfd-2
p=photo-finish:O
n=51:I-ORG
c=limelight-loving:O
c=praised:O
n=full-scale:O
c=historic:O
n=2.20:I-LOC
p=shiny:O
n=justin:^
n=pakistan:^
n=comment:O
w[i]=Continuing
w[i]=assessed
n=canteen:O
n=pakistan:O
c=five-year:O
c=4:04.78:O
p=first-team:O
c=disappointed:O
n=297:O
p=rebels:O
c=react:O
c=riot:O
n=scenes:O
n=annabel:O
p=union:I-LOC
w[i]=205-9
c=1:54.984:O
n=republican-initiated:O
w[i]=6-33
n=beta-1b:O
w[i]=6-26
w[i]=proximity
c=plotted:O
p=leverkusen:I-ORG
n=pulpit:O
c=5-6:O
n=95/96:I-ORG
n=liechtenstein:O
n=gatwick:I-LOC
w[i]=6-20
n=milkman:O
w[i]=6-25
w[i]=6-15
n=stepped:O
c=accomplice:O
w[i]=mutual
p=wrote:O
p=telecom:O
n=t&n:I-PER
w[i]=horizon
p=diego:I-LOC
w[i]=38:32.719
w[i]=6-98
c=pulls:O
w[i]=Word
w[i]=Work
c=3:33.36:O
w[i]=questioning
p=120-103:O
c=quantify:O
c=reliable:O
n=medicare:O
w[i]=marvelling
n=tass:I-PER
c=numan:O
w[i]=scientist
w[i]=dismantle
c=5,120:O
n=although:I-ORG
n=first-week:O
c=geology:^
n=some:I-MISC
n=10.15:O
w[i]=mining
c=geology:O
p=auto:O
c=translator:O
n=traders:I-LOC
n=focusing:O
c=shrs:^
w[i]=6-65
p=haglund:I-PER
n=crashed:I-MISC
c=lifejackets:O
c=shrs:O
p=reclamation:O
w[i]=oversight
p=telecomm:I-ORG
n=column:O
n=stamp:O
n=rationales:O
c=repeats:I-ORG
c=missionaries:I-LOC
c=b:O
w[i]=disrupt
n=five-year:I-ORG
c=meeting:I-LOC
w[i]=soldiers
c=licences:O
c=b:^
n=cow:O
c=28:I-PER
n=double-a:O
p=oblige:O
p=outfit:O
c=560:O
w[i]=deliveries
n=centrist:O
n=wheels:O
n=column:^
c=11,000:O
n=suffering:I-LOC
c=retailer:O
w[i]=6-10
w[i]=6-11
w[i]=6-13
c=overseers:O
w[i]=hinted
c=vacation:O
n=18.40:O
n=dismissing:O
n=tells:O
n=towed:O
c=terrific:O
p=nan:I-ORG
n=hinted:O
n=arrive:O
c=formed:O
c=detailed:O
n=2.56:O
n=sungard:O
p=agadir:I-ORG
n=dimitrios:I-LOC
n=linguistic:O
p=distribution:O
c=mission:I-LOC
p=school:O
n=distance:I-MISC
n=bosnia:O
p=cow:O
n=purchases:O
w[i]=delivering
p=cut-off-rate:O
w[i]=Sheikh
p=arsenal:I-ORG
c=addressing:O
p=205:O
p=trouble-makers:O
n=government-owned:^
n=afternoon:^
n=term:O
n=term:^
n=puertollano:I-ORG
n=fibres:O
p=kg:O
c=1,940:O
w[i]=long-term
w[i]=yourself
p=accident:O
p=chonbuk:I-ORG
c=12.85:O
c=08/29/1996:O
w[i]=saving
w[i]=205.10
c=20m:O
n=jockey:O
w[i]=ensured
p=rules-afl:I-MISC
n=ryutaro:O
c=shoulder:O
c=parents:O
n=julen:O
p=airmen:O
n=one-match:O
c=overtook:O
n=archive:O
c=useful:O
n=routes:O
p=mississippi:I-LOC
n=ditch:O
p=crawley:I-PER
c=peacekeeping:I-ORG
p=kwai:I-MISC
p=machinegun:O
c=deserves:O
n=second-round:O
c=delivers:I-PER
p=plugging:O
p=probably:O
c=explaining:^
n=deposit:^
c=plants:O
n=ruutel:I-PER
n=dissolution:O
n=defectors:O
c=explaining:O
c=beating:O
n=purchases:^
p=hancock:I-PER
w[i]=29/89
p=69-60:O
p=60th:O
n=dusty:^
w[i]=disengagement
c=prosecutor:O
w[i]=either
w[i]=Magnificent
w[i]=showdown
w[i]=elsewhere
n=paid:O
n=salisbury:I-PER
c=4:02.26:O
c=cantonal:O
p=richardson:I-PER
p=no.3:I-ORG
n=0.05:O
w[i]=Digital
c=54.13:O
n=happened:O
n=level:O
n=1998:O
w[i]=period
n=32.40:O
p=edinburgh:I-LOC
p=helping:O
w[i]=ingot
p=blijlevens:I-PER
w[i]=revisited
c=disturbance:O
p=copenhagen:I-LOC
c=sep:O
c=peacemaker:I-LOC
n=151:O
w[i]=suicide
w[i]=attributed
w[i]=diarrhoea
w[i]=garden
w[i]=55,929.89
w[i]=neutral
w[i]=Noisy
p=743.50:O
c=uninjured:^
c=50-year:O
p=63,913:O
p=vairelles:I-PER
n=surrounding:O
n=attorney:^
c=knew:O
p=brandes:I-PER
c=czk:O
c=1:54.342:I-ORG
n=installation:^
p=laborers:O
n=aggressive:I-PER
c=wo:I-LOC
p=dressing-room:O
c=26:54.41:O
c=80-seat:O
w[i]=accounting
c=5-7:O
c=ser:O
n=75:I-MISC
c=..:O
n=legislation:O
p=10-0-44-1:O
w[i]=incessantly
c=rupiah:O
n=far:I-LOC
p=squads:O
p=booy:I-PER
n=excess:O
p=seminary:O
p=naval:O
w[i]=complain
p=cop:O
n=nhamavila:O
c=legislations:O
w[i]=slice
c=sawn-off:O
c=litre:O
n=154:O
p=caring:O
n=substantial:O
c=mining:I-MISC
n=662-252-9950:I-LOC
c=five-year-old:O
n=join:O
n=goaless:O
p=oriented:O
c=adulthood:O
w[i]=surged
c=5-248:O
w[i]=warfare
n=unjustified:O
c=releases:O
w[i]=tendencies
n=tanzanian:O
w[i]=speeches
c=dispersed:O
w[i]=1,002
w[i]=1,003
p=circuit:O
w[i]=POINTS
p=kampfruf:I-ORG
w[i]=regulations
w[i]=revelled
p=villiers:I-PER
c=nurses:O
c=anti-corruption:O
w[i]=bourgeoisie
w[i]=GAMES
w[i]=longest
w[i]=sun-drenched
c=return:O
c=weekly:I-LOC
p=shaping:O
n=1992:O
n=disrupted:O
w[i]=hairy
c=63.87:O
n=undergone:O
w[i]=1,037
p=absorption:O
c=cash:I-LOC
p=windfall:O
n=invited:I-PER
w[i]=illiquid
n=aaron:O
n=26.29:O
n=banners:O
w[i]=scope
n=versions:O
w[i]=1,044
p=resurgent:O
n=cyprus-based:O
n=outspoken:O
n=aaron:^
c=an:I-PER
w[i]=ceremonial
w[i]=accordance
p=municipal:O
c=5-5/8:O
w[i]=1,041
n=77-minute:I-PER
p=11-15:O
c=126.0:O
n=taipei:^
n=4:26.467:I-LOC
w[i]=difficult
w[i]=understand
w[i]=corresponds
c=312-408-8787:I-ORG
c=shore:O
w[i]=score
w[i]=290.3
n=884:O
n=taipei:O
p=struggled:O
c=normality:O
p=fields:O
c=e:O
p=recess:O
w[i]=1,074
n=iraq-u.n.:O
w[i]=hails
c=tough:O
n=down:I-PER
n=3565:O
p=bonilla:I-PER
w[i]=unconfirmed
w[i]=1,086
p=flared:O
w[i]=frustrating
n=end-of-season:O
w[i]=venture
p=aegon:I-ORG
w[i]=tying
p=10-30:O
n=claudio:I-MISC
c=pageant:I-MISC
c=12.9:O
n=retain:I-MISC
n=besides:O
c=facilities:O
c=4950.000:O
c=119.3**:O
n=jailed:O
w[i]=slips
n=drove:I-MISC
c=6mo:O
w[i]=rear
p=fanfare:O
w[i]=real
n=progress:O
n=nablus-based:O
w[i]=sixth-inning
p=worsened:O
c=contingency:O
p=400:O
n=rameswaram:O
p=collections:O
p=constitutionally:O
w[i]=partisan
p=non-payment:O
p=serbian:I-MISC
n=progress:^
c=five-point:O
c=epidemic:O
c=2:29.66:O
w[i]=sucks
p=identities:O
n=amusement:O
n=1ama:O
p=31.44:O
w[i]=Fear
p=collective:O
w[i]=offset
n=31.5:O
p=warfare:O
p=samper:I-PER
n=world-class:O
c=pledged:I-LOC
n=family:O
c=outmaneuvering:O
w[i]=subsequently
w[i]=BREAKS
n=photograph:O
n=fiorentina:I-MISC
p=polls:O
c=tankage:O
c=dragged:O
n=month:O
n=extradition:O
n=kurdish:I-LOC
c=suddenly:I-PER
p=150:O
c=14:58.29:O
n=month:^
n=extradition:^
p=thompson:I-PER
n=gendarmerie:I-PER
c=occupation:O
c=endorsed:O
p=regional:O
w[i]=63rd
n=12-week:O
w[i]=655M
n=talked:O
w[i]=photographing
w[i]=read
p=guarani:I-ORG
n=1997:I-LOC
c=studied:O
n=251/09:O
p=66.74:O
c=ddf:O
p=rostelekom:I-ORG
w[i]=JOBLESS
n=only:^
p=hover:O
n=.628:O
n=testosterone:O
c=1997/98:O
c=2-239:O
w[i]=Brokers
c=high:I-MISC
p=bardejov:I-ORG
n=harvesting:O
n=gen'l:O
c=shelves:O
c=doubles:I-MISC
p=massacre:O
p=dundee:I-PER
c=slams:O
p=training:O
p=88-year-old:O
w[i]=lasagna
w[i]=Diluted
w[i]=595,400
n=saturday:I-ORG
p=terror:O
w[i]=3,894.00
n=suicidal:O
w[i]=insulting
c=800:I-MISC
w[i]=fault
w[i]=bringing
p=infiltrating:O
n=tobacco:O
c=passing:O
c=0.79:I-MISC
c=still:I-LOC
c=despite:O
n=mummies:O
c=96/04:O
c=despite:^
c=nb-11:O
p=lb:I-ORG
p=2-25:I-MISC
w[i]=08/29/1996
c=firearm:O
c=stering:O
n=favourable:O
p=wodzislaw:I-ORG
c=29th:O
n=199.71:O
p=minimal:O
n=1909:O
w[i]=harvested
n=cementing:O
n=down:I-ORG
p=subdivision:O
p=boo-nee-ol:I-LOC
p=callers:O
c=123.89:O
c=detectives:I-MISC
p=operate:O
w[i]=630.000
p=sawy:I-PER
c=complaints:O
c=showed:I-LOC
p=lunch:O
p=confederacy:I-ORG
p=exchanges:O
w[i]=disgruntled
n=concentrate:O
c=immunity:O
w[i]=straights
n=153:O
c=upper:O
c=nb-13:O
c=credible:O
c=resident:I-LOC
p=months:O
c=850,968:O
p=6.00:O
n=god:O
p=otherwise:O
n=usual:O
p=hansma:I-PER
n=stock-trade:O
n=wasim:O
c=23rd:I-PER
p=promised:O
n=nor:I-LOC
p=hutus:I-MISC
p=22.72:O
w[i]=statement
p=relieved:O
n=platforms:O
p=efforts:O
p=booking:O
c=deferring:O
n=1991:^
p=fuse:O
p=system:I-ORG
n=1991:O
n=italy:I-LOC
n=survival:I-LOC
n=eamonn:O
n=wasim:^
n=mate:I-ORG
c=theoretical:O
w[i]=1,123
w[i]=jointly
n=markets:^
n=eamonn:^
p=285,000:O
n=f.a.:O
w[i]=GETS
c=290.3:O
p=age:O
c=productive:O
n=quick:O
n=surging:O
p=beautiful:O
w[i]=1,100
c=.632:O
p=slumber:O
w[i]=1,154
c=abide:O
p=watermelon:O
n=tadayuki:^
n=quickly:I-MISC
c=surprise:I-ORG
c=offers:I-LOC
w[i]=dealers
n=curve:O
p=tremendous:O
w[i]=opposing
w[i]=61st
p=netherlands:I-MISC
c=cooperation:O
n=sliema:O
c=microfilm:O
c=manages:O
n=etruscan:O
w[i]=discouraged
c=flashpoint:O
c=modarabas:O
w[i]=2320.00
w[i]=6368
w[i]=1,130
p=perfect:O
n=nissan:O
w[i]=1,143
c=pay:^
n=positive:I-PER
n=odv:O
c=pay:O
p=platignum:I-ORG
c=died:O
p=multi-ethnic:O
p=82:O
w[i]=Secondhand
n=costain:I-ORG
p=doubt:O
p=soundly:O
w[i]=overstayer
w[i]=overstayed
p=3,907.5:O
w[i]=1,196
w[i]=1,190
c=d:O
n=terrain:O
n=29,434:O
p=else:O
p=gorrochategui:I-PER
c=2,840:O
n=outsiders:O
n=shattered:O
p=bp:O
w[i]=participant
c=comics:I-MISC
c=photocopies:O
n=alex:I-ORG
w[i]=gravel
n=used:^
w[i]=1,185
w[i]=CURRENCIES
p=rifkind:I-PER
c=seven:I-ORG
n=tops:O
p=change:O
p=spared:O
n=mette:^
c=protestors:I-ORG
c=toward:I-LOC
w[i]=affair
n=besides:^
c=seven-year:O
c=abuse:O
c=drawn:O
n=bond:I-MISC
p=disarcina:I-PER
w[i]=62nd
n=yoelvis:^
c=contacts:O
c=drawn:^
w[i]=novelty
c=flawed:O
n=particularly:O
n=spite:^
c=various:O
n=spite:O
p=spectacular:O
w[i]=38:32.149
c=soybean:I-MISC
c=2.60:O
p=doctors:O
p=lima:I-PER
p=payable:O
w[i]=264.00
w[i]=legislation
n=two-week:O
p=spilling:O
p=nyariki:I-PER
c=compliant:O
p=mcgrory:I-PER
c=shareholder:O
p=queensland:I-LOC
c=lbs:O
w[i]=normality
c=6.5:I-ORG
p=uncompromising:O
c=paving:O
n=constantine:O
p=delay:O
c=summary:O
c=deteriorate:O
p=5.208:O
c=arrive:O
c=summary:^
n=nanne:O
n=79.75:O
c=surveillance:O
n=251/08:O
n=toxic:O
c=operator:O
w[i]=quote
c=haldtime:^
n=promise:O
w[i]=quota
n=liege:O
w[i]=6441
n=react:O
c=would-be:O
c=adopt:O
p=pullouts:O
c=pork:O
w[i]=opposite
p=slowdown:O
w[i]=soybean
w[i]=managers
c=nine-wicket:O
c=unified:O
n=comfortable:^
w[i]=photo
c=27.495:I-MISC
c=ara:O
c=played:^
n=transmission:O
p=disappeared:O
c=affection:O
n=comfortable:O
c=ara:^
n=2:39.00:I-LOC
w[i]=poolside
c=played:O
w[i]=nurses
p=burillo:I-PER
c=unions:O
n=newcrest:O
n=ensure:O
c=observation:O
n=med:^
p=breach:O
c=avoided:I-PER
n=polti:I-LOC
c=1918:O
w[i]=legislative
n=.627:O
w[i]=+6221
c=deadpan:O
n=ukraina:O
w[i]=insurance
p=crippled:O
n=orel:I-LOC
w[i]=steers
c=6-65:I-PER
w[i]=tirade
w[i]=favor
p=rarest:O
n=corrected:O
n=alex:I-PER
p=avianca:I-ORG
p=components:O
n=corrected:^
w[i]=phone
c=upstairs:O
n=subjected:O
n=toyota:I-LOC
n=executed:I-PER
n=arthur:I-ORG
p=mandela:I-PER
n=graf:^
p=wisdom:O
p=straining:O
p=rapids:I-ORG
c=6.05:I-MISC
w[i]=old-timers
n=reduce:O
c=homered:I-PER
p=reinforced:O
n=patsy:O
w[i]=rbls
n=inspections:O
w[i]=unleashed
p=+65:O
n=2103:O
n=once:I-LOC
w[i]=1,200
n=premier:I-PER
c=ran:O
p=breukink:I-PER
c=outline:O
p=tracking:O
c=85:I-PER
c=stemmed:O
p=bunder:I-MISC
p=rene:I-MISC
c=flour:^
p=83:O
n=1994:^
p=ukraine:I-LOC
c=stoppage:O
c=flour:O
c=polyester:O
n=within:O
n=1994:O
w[i]=doubts
w[i]=deadline
c=observe:O
w[i]=cords
n=u.s:O
w[i]=negotiators
n=abuses:O
w[i]=drinking
p=layoffs:O
w[i]=maturity
w[i]=107.55
n=diocese:O
c=312-983-7347--:I-PER
c=90-day:O
w[i]=7:31.69
c=dossier:O
c=set:O
w[i]=14,278.9
w[i]=7:31.65
p=miyagi:I-PER
c=donated:O
n=previous:I-LOC
c=1986-87:O
w[i]=maturing
n=sawing:O
w[i]=friction
p=shareholder:O
n=publicised:O
p=brandi:I-PER
w[i]=denies
n=remington:O
w[i]=denied
c=151-to-1:O
c=spend:O
p=cups:O
c=buses:O
n=rites:O
w[i]=personally
c=apostolic:O
n=1,700-hectare:O
n=zionists:O
w[i]=institutions
w[i]=fighters
w[i]=Reiterates
c=thwarting:O
p=grain-growing:O
c=alter:O
n=inventory:O
p=pastor:O
n=sponsored:^
c=sent:O
w[i]=384-6364
p=cabinet:O
p=trimmed:O
w[i]=double
w[i]=ordeal
n=slovakia:I-PER
c=813:O
c=manager:O
n=740:O
n=pacesetters:O
c=gestures:O
p=german-based:O
c=control:I-MISC
n=abandoned:O
n=3:54.60:I-LOC
c=prosecution:O
c=disquiet:O
p=roadblocks:O
w[i]=SHARPSHOOTER
p=1996/97:O
p=private-sector:O
p=grand:O
w[i]=107.74
n=atlanta-based:^
w[i]=107.78
c=vote:I-ORG
w[i]=likes
p=knot:O
n=7-9:I-PER
w[i]=liked
w[i]=60th
n=movements:O
n=eliminated:I-LOC
c=partnerships:O
n=well-oiled:O
c=spectacle:O
p=taunts:O
p=tasks:O
c=mission:I-ORG
p=bobkova:I-PER
c=deficit:^
c=9,500:O
n=karak:O
p=lengthy:O
c=reeling:I-ORG
c=deficit:O
n=piper:O
w[i]=m;+21.5yr
n=34:I-PER
n=karak:^
c=course:I-LOC
n=12,201.09:O
n=racers:^
p=resorting:O
n=told:I-MISC
p=tactic:O
n=int:^
w[i]=madness
c=seven:I-LOC
c=43rd:O
p=harvested:O
n=251/07:O
n=judge:O
p=conducted:O
w[i]=committee
c=scandals:O
w[i]=committed
p=raising:O
n=6.64:I-LOC
w[i]=complaint
w[i]=divine
w[i]=scrap
p=1-1/4:O
p=37th:O
w[i]=square-leg
w[i]=cheques
p=outslugged:O
c=readily:O
c=detachment:I-ORG
c=1996-08-27:I-PER
w[i]=predicted
p=announced:O
p=villa:O
c=through:I-LOC
n=pursuit:^
c=aided:O
w[i]=6320
p=tide:O
n=13-10:I-PER
n=re-enacting:O
c=frame:O
c=airliner:O
p=arafat:I-PER
c=toss:I-LOC
c=owned:O
c=punish:O
n=fighters:^
n=continental:O
w[i]=revolvers
p=premiership:O
p=fax:O
n=much-delayed:O
n=sum:O
p=58.00:O
n=strong-dollar:O
w[i]=week-long
w[i]=blizzard
n=hard-pressed:O
n=dedication:O
c=61.36:O
w[i]=bogeys
p=bbb+:O
n=490:O
n=rank:O
p=inflation:O
n=dominic:I-PER
n=clarification:O
p=growing:O
p=sukova:I-PER
n=commandos:O
n=hansa:I-ORG
p=custodial:O
w[i]=orders
n=1995:^
n=1995:O
n=official:I-PER
n=.626:O
w[i]=oppreses
w[i]=Shipments
w[i]=fixtures
w[i]=-----
p=32.0-43.0:O
n=123.157:O
n=pigs:O
n=victory:^
n=cautious:O
c=27:I-MISC
n=para:O
n=badly:O
c=65-8703092:I-PER
n=min:I-PER
n=31.7:O
c=habits:O
n=cubans:O
n=met:I-LOC
c=fun:O
n=juan:I-MISC
p=pickup:O
c=increases:O
w[i]=indices
n=marksmen:O
n=adige:O
n=crazy:O
p=skipped:O
p=84:O
c=834405:O
n=1993:^
p=cards:O
n=1993:O
p=capitalisation:O
c=counter-attack:O
p=.307:O
w[i]=1,328
w[i]=timetable
n=barry:O
p=lacks:O
n=barry:^
n=after:^
n=miltiadis:I-PER
c=deny:O
c=prove:O
n=wild:O
n=0.01:O
c=5,658:O
w[i]=distribute
c=toss:O
p=premiums:O
w[i]=chooses
w[i]=impassable
w[i]=1,305
w[i]=gained
w[i]=revisions
c=.630:O
c=7th:I-PER
p=missile:O
w[i]=fitting
p=repeated:O
p=ransom:O
c=9.12:I-ORG
p=dyed:O
p=brilliant:O
p=launches:O
c=conquering:O
w[i]=T-bill
w[i]=lights
p=france-juppe:I-MISC
w[i]=raft
n=heavier:O
c=sulphur:O
w[i]=headache
w[i]=long-time
w[i]=Fans
n=trinidad:O
w[i]=Record
c=42.:^
w[i]=shaking
p=calculated:O
p=shareholers:O
n=60.33:O
p=three-game:O
c=dispensations:O
p=gouging:O
w[i]=raid
n=task:^
n=captive:O
c=an:I-ORG
c=penalty:^
n=undressing:O
c=over:O
c=penalty:O
p=tranches:O
c=cont:O
w[i]=rain
n=task:O
c=testosterone:O
w[i]=Fall
n=ata-ur-rehman:O
c=over:^
p=xhosa:I-MISC
w[i]=rail
n=packed:O
c=ramshackle:O
p=cancel:O
n=monitors:O
p=stafford:I-PER
p=gets:O
w[i]=15-20
w[i]=15-21
n=m2:I-LOC
n=49:I-PER
p=chandigarh:I-LOC
c=airlines:O
p=underpopulated:O
p=accounting:O
w[i]=4mos
n=surgery:I-PER
w[i]=15-30
w[i]=race
w[i]=12.177).
w[i]=overdose
n=guided:O
p=walloped:O
w[i]=explicit
p=differences:O
n=chase:O
p=abnout:O
n=kocinski:^
c=employees:O
p=113.00:O
p=ankle:O
w[i]=halls
n=ken:O
n=ago:O
p=bogota:I-LOC
p=riffe:O
c=collections:O
w[i]=15-18
n=wartorn:O
w[i]=15-10
p=bencevic:I-PER
w[i]=15-11
w[i]=15-12
p=installations:O
w[i]=15-13
w[i]=1,380
w[i]=15-14
p=ham:O
c=hand-written:O
w[i]=steered
c=department:I-MISC
c=rural:O
w[i]=12,855.7
w[i]=6179
p=kudapokuna:I-LOC
c=6mth:O
c=floated:O
p=cannes:I-ORG
p=ironically:O
n=top-level:O
c=prisoner:O
n=bottle-throwing:O
c=conclusion:O
p=543:O
n=almere:O
p=214.40:O
w[i]=During
c=reoffer:O
p=bruguera:I-PER
c=fellow-american:O
c=ways:O
n=monte:O
n=tender:^
p=together:O
c=28.99:O
w[i]=6156
p=battling:O
w[i]=horrors
c=grenade:O
w[i]=38:32.353
p=sweep:O
c=mood:O
w[i]=through
n=6-25:O
n=asmara:I-MISC
p=wolf:I-PER
w[i]=sterling
c=g:O
n=arizona:I-LOC
c=slice:O
p=hamiti:I-PER
w[i]=consultation
n=2:00.39:I-LOC
n=movie:O
n=technological:O
p=hakkari:I-LOC
c=192:I-PER
n=pro-reform:^
n=251/06:O
w[i]=condos
n=bme:I-ORG
p=prisoners:O
c=49.61:O
p=leicester:I-ORG
w[i]=miners
n=samples:O
p=marine:O
n=wolfgang:I-LOC
n=belgians:O
n=suggested:O
w[i]=rolled
w[i]=issues
n=nice:O
w[i]=issued
w[i]=40-34
w[i]=rave
p=quarterfinals:O
w[i]=400-strong
c=ipo:O
c=desolate:O
c=payments:O
p=platform:O
p=23.53:O
w[i]=10,119,000
n=frcd:O
c=bordering:O
p=notation:O
n=powerless:O
p=electing:O
n=jennifer:O
w[i]=impeached
c=formally:O
w[i]=overdone
p=293:O
p=1-1/3:O
w[i]=optimistically
c=agrees:O
n=servicing:O
p=third:O
n=bedibunder:O
c=eastward:O
n=shaba:I-LOC
c=2-1/2:O
w[i]=IAE-3
p=impression:O
n=goals:O
n=saturday:I-LOC
p=above-average:O
w[i]=prefect
w[i]=rare
p=209:O
p=ivorian:I-MISC
w[i]=4:17.696
n=sun:^
n=dignity:O
p=qualify:O
c=pro-woman:O
p=slaying:O
p=susceptibility:O
p=socha:I-PER
c=9554:O
p=stressing:O
p=sypron:I-PER
c=executed:I-LOC
p=dahlman:I-PER
c=wraps:O
c=still:I-ORG
w[i]=Presently
w[i]=denial
n=vowed:I-PER
w[i]=Farm
c=225-5:I-LOC
n=12-year:O
w[i]=rate
c=4,570:O
w[i]=rata
n=kilometres:O
n=humble:O
w[i]=idiots
w[i]=priority
c=left-armer:O
n=49:I-ORG
c=nb-10:O
n=jail:I-MISC
n=stage:I-MISC
n=amid:O
w[i]=models
w[i]=rang
n=disney:O
w[i]=rand
n=jumbish-i-milli:O
p=refiner:O
p=creditors:O
n=tracy:O
c=manner:O
w[i]=rant
n=lunch:I-LOC
w[i]=modest
w[i]=rank
n=rothschild:O
w[i]=1,400
n=suffering:I-PER
n=investigated:O
n=31.6:O
n=defence:^
n=vermont:I-LOC
p=25,860:O
n=fire:^
p=earth:O
w[i]=rape
p=hyper-inflationary:O
c=34,277:O
p=produce:O
n=10,300:O
c=reorganisation:O
p=run-off:O
p=turnaround:O
c=showed:I-ORG
w[i]=keeps
w[i]=corps
n=fire:O
p=symcox:I-PER
n=rousse:O
n=gathered:I-MISC
p=mushota:I-PER
p=zanoli:I-PER
c=respectable:O
p=kibet:I-PER
n=1997:I-MISC
c=juvenile:O
c=5-7/8:O
n=architect:O
n=aggregate:I-PER
n=haga:^
p=balloons:O
w[i]=bases-loaded
n=hurling:O
c=homegrown:O
n=wyche:I-LOC
c=abducted:O
c=seriously:O
n=8.5:I-LOC
c=acknowledge:O
c=milligrams:O
n=post-season:O
n=malta:I-ORG
c=bastion:O
p=somavia:I-PER
c=pledged:I-PER
p=pity:O
n=david:^
p=3,820,000:O
n=david:O
w[i]=1,429
p=persistently:O
w[i]=unspecified
c=placed:I-MISC
n=congo:O
n=gazprom:I-MISC
w[i]=15.09
n=0.0817:O
w[i]=15.00
c=properties:O
n=amtrak:O
w[i]=knack
n=chief-of-staff:O
w[i]=15.19
n=sidings:O
w[i]=1,453
p=85:O
c=faction:I-ORG
w[i]=80-seat
n=half-volley:O
n=900.00:I-ORG
n=aberdeen:I-PER
n=amtrak:^
p=spin:O
n=sahara:O
p=.594:O
c=arose:I-ORG
w[i]=250,000
p=deville:I-PER
p=dtd:O
n=sub:O
n=letters:O
w[i]=1,461
c=1.5:O
w[i]=active
c=fought:I-PER
n=subaru:O
p=severe:O
c=pre-abnormals:O
p=km:O
c=1:53.043:I-ORG
c=barrel-per-day:O
c=informed:O
n=cater:I-LOC
p=spring:O
c=3-7:O
c=rewards:I-ORG
c=see:O
n=tract:O
n=ot:O
n=democratic:I-MISC
p=2,341:O
c=considers:I-LOC
c=agreement:I-LOC
p=chechnya:I-LOC
c=ballots:O
n=6-iron:O
p=camoflage:O
c=advocate:O
c=aides:^
n=ekeren:I-ORG
c=20,167:O
p=atlante:I-ORG
c=100-30:O
c=aides:O
w[i]=6.0-percent
n=off-side:O
w[i]=action
w[i]=Bondholders
w[i]=whereas
c=fled:O
n=popular:^
w[i]=apart
c=paramilitaries:O
w[i]=8:15.69
p=great-granddaughter:O
w[i]=experiment
p=implied:O
c=thing:O
p=odv:O
c=273-5:O
p=designs:O
c=bystanders:^
w[i]=limit
n=jack:O
n=arriving:O
p=3.55:O
n=jack:^
n=churches:^
p=observed:O
p=employment:I-ORG
w[i]=acting
c=still:I-PER
n=popular:O
c=achieved:O
w[i]=15.72
w[i]=15.75
n=miltiadis:I-ORG
w[i]=lateral
c=unemployement:O
p=straight-set:O
n=stick:O
w[i]=1,750-hectare
p=lords:O
c=dictator:I-MISC
c=closed:O
p=cooperation:O
p=headbutting:O
w[i]=interferon
w[i]=180,000
w[i]=costs
p=leicester:I-LOC
w[i]=secure
p=launchers:O
n=1yr:O
c=planted:O
w[i]=+1,161
p=hamstring:O
n=both:I-PER
c=planted:^
n=taken:I-ORG
p=slows:O
p=15.75:O
p=infection:O
n=insert:O
c=611:O
n=energies:O
w[i]=journals
p=passer-by:O
c=edged:I-ORG
c=20-month:O
p=teen:O
n=arguing:O
c=saved:I-PER
p=1,700:O
n=fruits:O
p=blank:I-PER
n=7.50:O
w[i]=regular
n=chardonnay:O
n=0.94:O
n=citizens:O
p=bungling:O
n=simex:^
c=slumping:O
w[i]=exact
n=tenders:O
n=oilseeds:O
w[i]=violators
n=british:I-MISC
n=pierre:O
n=legs:O
n=sergei:^
c=airlines:I-MISC
c=12-year:O
n=legs:^
c=3.43:O
n=negative:O
n=sergei:O
p=golden:O
c=5000:O
w[i]=management
n=non-working:O
c=underwriter:O
w[i]=POISED
p=mills:I-MISC
c=promise:O
n=parc:O
c=victories:O
p=125.3:O
n=corruption:O
p=megawatts:O
p=22,434:O
n=confiscated:O
p=society:I-ORG
p=10-1-47-2:O
n=tablets:O
n=933:O
c=trend:O
p=albanian:I-MISC
p=comparison:O
p=spirits:O
n=samokhalova:I-PER
n=poland:I-LOC
p=scholl:I-PER
c=promo:O
p=154:O
c=runs:I-MISC
n=one-half:O
p=mainframe:O
p=bolton:I-ORG
c=players:O
w[i]=Aggregate
c=817.60:O
c=17.:^
c=paper:O
p=off-season:O
w[i]=1,500
n=debate:O
c=parting:I-ORG
w[i]=homers
p=social-democratic:O
n=roosevelts:^
w[i]=zone
w[i]=independent
w[i]=1,558
p=500,000:O
c=star:I-MISC
c=6-33:O
c=jan-june:O
c=students:O
c=plainclothes:O
c=shipyard:O
c=students:^
p=comisetti:I-PER
p=sporitelna:I-ORG
c=preservation:O
n=constitutionally:I-ORG
c=sleeping:O
w[i]=None
w[i]=could
n=belgium:^
p=examined:O
c=society:O
n=command:I-MISC
c=handling:O
n=belgium:O
c=woes:O
n=zambia:I-PER
n=metz:I-ORG
p=letdowns:O
n=59.00:O
w[i]=Everyone
n=heerenveen:O
p=acc:I-ORG
p=profitable:O
w[i]=obscene
w[i]=Nov.
p=these:O
n=highest:O
p=escort:O
w[i]=Note
c=20-7:O
c=arrival:O
c=225-5:O
w[i]=Wife
w[i]=outplayed
p=gypsy:O
n=d.:I-PER
n=norifumi:^
p=mccoist:I-PER
n=descendant:O
p=barngetuny:I-PER
p=86:O
c=ornate:O
c=1.4:O
p=slums:O
n=slovakia:I-ORG
w[i]=unsure
c=69:^
n=biggest:^
c=homer:O
n=shop:O
c=sightings:O
n=biggest:O
n=12.60:O
p=paratroop:O
c=entitling:O
c=19,500:O
c=softs:O
c=insurer:I-MISC
c=69:O
n=orvieto:O
p=infrastructural:O
n=palestinian-ruled:O
n=probe:O
c=certificates:O
c=print:O
p=registry:O
c=base:O
p=339.00:O
n=things:^
c=neighbourly:O
n=opium:O
n=baldato:^
n=infectious:O
n=things:O
w[i]=contaminated
c=concerned:O
w[i]=upside
w[i]=restructure
c=89.40:O
p=highest-ranked:O
n=jailer:O
c=flee:O
p=misery:O
n=injection:O
c=avoided:I-LOC
w[i]=teacher
n=sceptical:O
n=bethlehem:I-LOC
n=225-share:O
n=33969650:O
n=bare:^
c=unveiled:O
p=valid:O
p=10-0-42-0:O
n=loans:O
c=pro-league:I-MISC
c=violently:O
p=accusation:O
p=self-rule:O
c=impede:O
p=coceres:I-PER
w[i]=grains
p=15-30:O
n=certainly:I-LOC
c=kingdom:I-MISC
c=missed:O
n=must:I-ORG
c=758:O
n=dark-brown:O
n=vurens:O
w[i]=quit
c=rattled:I-PER
n=0875:O
p=roadsides:O
n=jodie:O
c=362:O
w[i]=links
p=pedersen:I-PER
c=nomads:^
c=errors:O
p=feasible:O
p=pro-league:O
n=buffalo:O
p=ob:I-ORG
n=metz:I-PER
c=halftime:^
w[i]=liner
w[i]=lines
c=4411:O
p=tonga:I-LOC
c=trucks:O
c=halftime:O
n=breakaway:I-LOC
n=camelot:O
w[i]=feasible
p=decades:O
w[i]=lined
c=militant:I-MISC
p=finalising:O
n=tom:I-PER
n=medium-term:O
n=unable:I-PER
w[i]=sector
n=godfather:O
n=illiquid:O
c=32nd:I-PER
p=sturrup:I-PER
c=5.95:O
w[i]=steady
c=continued:O
n=heathrow:O
c=3,632.3:O
n=nail:I-ORG
n=transformed:I-PER
w[i]=enhance
c=+7095:O
n=2:29.66:O
p=2,558.84:O
c=five-:O
w[i]=Even
p=engaging:O
c=1:05.850:O
w[i]=E-mail
n=203:^
p=post-election:O
c=i:^
c=begins:O
n=chat:O
c=mid-sea:O
n=stranded:I-LOC
c=factors:O
n=sidestepped:O
w[i]=chaired
c=i:O
n=0.95:O
p=895m:O
w[i]=fatigue
w[i]=9,167,000
p=u.s.-bound:O
w[i]=downwards
p=13.24:O
p=brisbane:I-ORG
c=1.126:O
n=expansion:I-MISC
n=gigi:O
w[i]=Engineering
n=dhaka:I-LOC
p=dredging:O
w[i]=handover
n=alexander:I-LOC
p=loosened:O
n=+310.4:O
c=buy:O
n=oakland:I-ORG
p=knows:O
p=prey:O
p=penetrated:O
c=turns:I-PER
c=season-high:O
c=innings:O
w[i]=Worldwide
n=recovery:^
p=300-seat:O
p=businessmen:O
w[i]=1,600
n=physicist:O
n=grab:O
p=18.1:O
c=202.90:O
c=unconditional:O
n=rebel:I-PER
p=supercup:I-MISC
c=innings:^
p=dunedin:I-LOC
n=share:I-MISC
p=1.4765:O
p=8th:O
w[i]=With
n=georgia:^
w[i]=observing
n=georgia:O
c=undisclosed:O
p=nominated:O
n=afghanistan:I-LOC
n=fidelis:O
p=parties:O
p=kilo:O
c=extortion:O
c=diminish:O
w[i]=managing
n=wielding:O
c=planks:O
c=scrutinise:O
w[i]=hangs
c=responsibility:^
p=product:O
w[i]=utilisation
w[i]=Wing
c=kidnapping:O
c=17-:^
n=or:I-MISC
c=1,800:O
n=juliana:O
p=pukstys:I-PER
c=responsibility:O
c=requests:O
w[i]=1,617
n=quote:O
n=medicaid:O
c=acts:O
p=fours:O
n=112.8:O
n=keyed:O
n=hampshire:I-ORG
c=lifts:O
c=3rd:O
p=triggered:O
w[i]=sugar
n=recovery:O
n=welcoming:O
w[i]=hands
p=153:O
p=prominent:O
w[i]=rock-bottom
c=cancelled:I-LOC
c=governor:^
n=30.054:O
n=penniless:O
p=flares:O
c=noted:I-ORG
p=hours:O
c=138.0-149.0:O
c=governor:O
c=witchdoctor:O
w[i]=1,683
w[i]=rouble
n=988.2:O
w[i]=235-6745
n=migrated:I-MISC
c=via:O
p=kilovolt:O
c=had:I-MISC
w[i]=Contracts
c=0.355:O
c=10,880,000:O
w[i]=1,650
c=20-6:O
c=0.19:O
w[i]=nb-16
p=blow:O
w[i]=150.3
w[i]=distillation
w[i]=nb-10
w[i]=nb-11
w[i]=38:34.436
w[i]=nb-13
p=variation:O
p=custody:O
c=+358:O
c=hurling:O
p=.592:O
p=nil:O
c=just:^
c=litigation:O
n=pay:I-LOC
c=1.3:O
n=flagrant:O
w[i]=indefinitely
c=68:^
c=2060:O
n=80-seat:O
w[i]=DAY--COMPANY----PERIOD--CONSENSUS----RANGE-------PVS
p=sacks:O
p=rethink:O
w[i]=recommendations
p=feagin:I-PER
n=reached:I-ORG
c=shipyard:I-MISC
c=68:O
w[i]=joined
w[i]=When
w[i]=hegemony
n=mds:^
w[i]=proportion
c=three-month-to-three-year:O
n=83rd:^
c=scoreline:O
n=pledge:O
n=clear:O
p=10,663:O
n=mds:O
n=11-year-old:O
c=go-ahead:O
c=reorganization:O
w[i]=second-ranking
n=83rd:O
c=229:O
c=non-payment:O
c=7.40:I-LOC
c=enforce:O
p=hick:I-PER
n=plane:I-MISC
w[i]=asylum
p=refined:O
c=quick-fire:O
c=short:O
p=surgical:O
c=interviewed:O
c=televison:O
w[i]=consolidating
n=juha:^
n=undone:O
n=exhausted:O
c=right-field:O
w[i]=lions
p=fast-tracked:O
n=5-5/8:O
n=arguments:O
n=reviews:O
c=short:^
w[i]=consolidation
n=distributes:O
c=avoided:I-ORG
w[i]=ousting
w[i]=barley
p=dax-3o:I-MISC
n=stranraer:^
w[i]=corrections
w[i]=cover
w[i]=What
p=respiratory:O
p=theoretical:O
w[i]=Temperatures
n=reassert:O
n=5-248:O
w[i]=slows
w[i]=compromised
n=92.0-94.5:O
w[i]=Miscellaneous
p=lowered:O
c=insufficient:O
p=sidelined:O
c=shalt:O
c=363:O
c=dogged:O
c=ip:O
n=mother:O
p=discovered:O
c=6-2:I-PER
c=designate:O
c=porn:O
p=m1:O
c=export:O
p=35th:O
p=above-normal:O
n=inga:^
c=export:^
n=busy:I-PER
p=specify:O
c=fast-tracking:O
c=plagued:O
c=blacks:O
w[i]=suits
n=century:O
n=arch:O
n=93.12:O
p=window:O
c=lacking:O
w[i]=capped
c=613:O
c=anti-government:O
n=semifinals:O
w[i]=arsenals
n=sets:O
n=mountainous:O
n=20.21:I-LOC
c=spasms:O
c=pact:O
w[i]=coconut
p=anti-graft:O
c=military:I-MISC
n=vine:O
n=counsels:O
w[i]=GOALSCORERS
c=first-inning:O
w[i]=conservation
p=41.8:O
c=studies:O
c=replacements:O
n=computerised:O
n=currrent:O
n=terry:I-PER
c=large:O
c=multinational:O
n=conquest:O
n=skying:O
c=tktx:O
c=files:I-ORG
n=various:O
c=14.8:O
n=speculate:O
w[i]=impeachment
w[i]=fighting
p=full-year:O
w[i]=diplomatic
w[i]=unveiling
c=inevitably:O
p=notable:O
n=malaria:O
n=7-11:I-PER
n=dahman:O
c=subpoenas:^
c=9,446:O
p=4.38:O
p=affair:O
n=km:I-MISC
p=foundation:I-ORG
c=vicious:O
c=plastics:I-MISC
c=looked:I-PER
p=jays:I-ORG
c=factions:I-MISC
c=subpoenas:O
p=199,900:O
p=part-finance:O
p=stinnes:I-ORG
n=0-50:O
c=foray:O
n=amman:I-LOC
n=oversold:O
c=6320:O
c=annulled:O
p=brisbane:I-LOC
n=survives:O
n=206:O
p=nominal:O
c=flees:O
c=1,113,785:O
n=.10:O
w[i]=conservative
p=reality:O
w[i]=types
c=matron:I-LOC
p=0.275:O
n=low-fat:O
c=contend:O
n=fat:O
n=parana:I-ORG
p=irwin:I-PER
w[i]=six-party
w[i]=coups
p=548:O
n=sound-track:O
w[i]=radicals
n=17.29:I-LOC
c=notified:O
p=.508:O
p=katowice:I-ORG
p=customs:O
n=cetes:I-LOC
c=tuscan:O
n=slovakia:I-LOC
c=worker:O
n=edged:I-MISC
w[i]=1,700
n=meatpacking:O
c=1,803:O
p=verisign:I-ORG
p=27-5-78-2:O
w[i]=court
w[i]=activists
p=87:O
c=happier:O
c=just:O
n=ing:O
w[i]=Neither
n=212-859-1650:I-ORG
n=ing:^
c=1.88:O
p=parsons:I-PER
p=maybe:O
n=trainer:O
c=10-0-59-1:^
p=greetings:O
p=cords:O
w[i]=arresting
w[i]=carriers
c=ambassador:I-MISC
c=l:O
c=guns:O
p=1997--ruehe:I-MISC
p=1.03:O
c=10.5-42.3:O
c=terms:O
w[i]=convictions
c=purchaser:I-MISC
n=fishing:O
c=terms:^
n=8.32:O
w[i]=thefts
n=fishing:^
p=fully-elected:O
c=doubted:O
w[i]=12,600-12,750
p=technique:O
w[i]=supplying
p=fulfilled:O
w[i]=controls
c=markets:O
p=shelters:O
n=79.9:O
p=suppose:O
c=markets:^
n=9074.850:O
w[i]=No.1
w[i]=No.2
c=1.2:O
w[i]=extremely
n=discus:O
n=handwritten:O
c=starter:I-ORG
c=defense:O
p=oldham:I-ORG
p=1.05:O
c=natural:O
p=prayed:O
p=crews:O
p=m2:O
c=do:I-MISC
w[i]=declarations
n=both:I-LOC
n=vasco:I-ORG
c=advised:O
p=mounted:O
n=separating:O
w[i]=modelling
w[i]=LEAVE
p=older:O
n=ajay:I-PER
w[i]=vomiting
c=7,190:I-ORG
n=nothing:O
c=228:O
n=administer:O
n=malta:O
n=15-9:I-LOC
c=speeches:O
p=restored:O
n=curfew:O
n=brakes:O
n=malta:^
p=compensatory:O
c=+91-11-3012024:O
p=located:O
c=fan:I-PER
c=crossbar:O
n=suleyman:O
c=compatriot:O
n=nothing:^
w[i]=690,000
c=until:I-MISC
n=72nd:I-PER
c=photographing:O
c=2,250:O
c=cricketers:O
n=chechen:O
p=0.20:O
n=readily:O
p=marginalised:O
w[i]=charity
w[i]=FULL
w[i]=shelling
p=tube:O
n=highs:O
p=stilted:O
p=rickety:O
n=218:I-ORG
p=northampton:I-ORG
w[i]=hype
w[i]=sinking
n=romantically:O
w[i]=thousand
p=operators:O
n=commonplace:O
p=harassing:O
w[i]=breakdown
w[i]=Immediate
p=forfeited:O
w[i]=monarchy
c=midfielder:I-MISC
c=67:O
w[i]=36337.137
n=extremely:O
p=ceausu:I-PER
c=67:^
p=flower:I-PER
c=5.2893:O
c=cholera:I-LOC
n=q3:O
n=alaska:O
c=managed:O
p=mountains:I-LOC
p=3.56:O
w[i]=shipload
n=doubleheader:I-LOC
c=spirited:O
w[i]=2,146.79
n=multinational:O
c=four-run:O
c=mositure:O
c=promotion:O
n=expand:O
w[i]=960.00
c=2,500:O
c=ex-world:O
w[i]=8.20-8.50
p=casualties:O
n=pool:O
c=noted:I-PER
p=fierce:O
p=doce:I-ORG
c=chance:O
c=overnight:O
c=carefully:O
n=hardly:I-PER
w[i]=Sales
c=overnight:^
n=dozens:I-LOC
w[i]=newly-established
w[i]=seller
c=tin:O
n=hrw:I-LOC
p=stemming:O
c=stagnates:O
n=secrets:O
p=strains:O
n=claiming:O
c=merchant:O
w[i]=hryvna
n=liberty:O
n=180.38:O
n=enemy:O
p=out-of-town:O
c=12-week:O
n=israel-plo:I-PER
n=684:O
n=1:46.18:I-LOC
n=illegally:O
p=nine-to-one:O
n=johannesburg:O
p=firefighters:O
p=zte:I-ORG
p=sovereignty:O
p=rsr:I-ORG
n=upturn:O
p=call-up:O
n=metric:O
p=liaising:O
p=unspecified:O
n=johannesburg:^
n=covered:O
p=boulami:I-PER
c=streets:O
c=tin:^
n=5,120:O
w[i]=guitarist
w[i]=belonging
n=entered:I-PER
c=values:O
w[i]=298-6
n=course:^
w[i]=performing
w[i]=1,806
w[i]=insufficient
w[i]=1,800
w[i]=1,803
p=fournier:I-PER
w[i]=gastro-intestinal
n=205:O
n=roasted:O
n=polster:O
p=environment:O
n=sushi:O
n=course:O
p=unsuccessful:O
p=58th:O
n=disposing:O
c=performer:O
c=opener:O
w[i]=happy
p=grabbed:O
w[i]=extensions
c=opener:^
n=javedan:O
n=palestinians:^
w[i]=rubella
n=inter-ethnic:O
c=k:O
c=clouds:O
p=nordegg:I-MISC
p=january-april:O
c=during:I-PER
n=poland:I-ORG
c=larger:O
p=reds:I-ORG
w[i]=10.982
p=88:O
w[i]=soared
n=retrieved:O
n=934:O
p=starker:O
p=mamiit:I-PER
p=defied:O
c=unless:^
n=934:^
n=authors:O
c=unless:O
c=at:I-MISC
w[i]=transfer
p=151:O
n=+27:I-LOC
c=lawsuits:O
n=heathrow:I-LOC
c=605m:O
n=inspectors:O
c=umpires:O
c=emptied:O
w[i]=foreigners
n=04/06/96:O
c=demonstrate:I-MISC
c=owner:O
p=lack:O
w[i]=imprisonment
w[i]=third-round
c=footing:O
c=earthquake:^
n=financially:O
c=earthquake:O
n=figure:O
p=immolation:O
n=stationery:I-LOC
p=distraught:O
n=zubair:O
n=auxerre:I-ORG
n=10.5:O
p=novorossiisk:I-ORG
c=19-year-old:O
n=urges:O
p=297:O
n=copenhagen:I-PER
p=fans:O
w[i]=electoral
p=ascot:I-PER
c=1.1:O
n=8,333:O
n=spike:O
n=drives:O
n=7.5:I-ORG
c=supporting:O
p=losers:O
n=offal:O
c=iv:O
n=138.643:I-ORG
p=mcloughlin:I-PER
c=1865:O
n=1998/99:O
c=rejecting:O
n=faster:O
w[i]=lightning
c=ripe:O
p=temperatures:O
n=madame:O
n=libyan:^
n=nationalistic:O
n=apa:O
c=leaders:O
c=late:I-ORG
p=yeltsin:I-PER
p=knowledge:O
n=spla:I-ORG
c=leaders:^
n=libyan:O
p=headlines:O
n=op:O
p=murdering:O
n=jackie:I-ORG
n=op:^
n=q2:^
w[i]=currently
w[i]=inspections
n=ham:O
c=gathering:I-ORG
c=2-24:O
c=n:O
n=forfeit:O
p=showcased:O
n=faroe:I-ORG
c=slim:I-LOC
p=409:O
c=stop:I-MISC
n=depart:I-PER
n=evidence:I-LOC
n=8-10:I-PER
n=.575:O
n=inaugurated:O
p=netting:O
w[i]=knelt
p=imola:I-LOC
w[i]=Bright
p=100.92:O
p=ruf:I-ORG
p=verbally:O
p=recording:O
c=37.0:O
n=parks:O
c=think:O
n=hasina:O
p=disturbance:O
n=structure:O
c=normal:O
w[i]=high-performing
c=vmig-1:O
n=pain:O
w[i]=statements
c=0.17:O
c=98:I-PER
p=boogert:I-PER
p=clayton:I-PER
w[i]=hardy
n=jason:I-LOC
c=non-debt:O
p=17,166,000:O
c=installing:O
c=fined:O
n=lacking:O
p=spruce:O
c=protestor:O
p=based:O
c=20-metre:O
n=shown:I-ORG
w[i]=dangerous
n=caribs:O
c=title:I-MISC
n=counter-attack:O
p=0.21:O
c=14.5:O
n=1,123:I-ORG
w[i]=practical
p=balakow:I-PER
w[i]=mental
p=559-mile:O
p=emerson:I-PER
c=herbicides:O
p=colours:O
n=southwest:I-LOC
p=6-1-23-2:O
p=159:O
c=handle:O
c=quickly:I-ORG
c=served:O
n=poland:I-PER
w[i]=advance
w[i]=absorption
c=forward:I-ORG
n=tvm:I-LOC
w[i]=secret
n=meet:O
c=arrange:O
n=procure:I-ORG
c=criticized:I-PER
n=arrows:I-LOC
w[i]=revelations
w[i]=generally
p=sections:O
p=115.58:O
p=prompt:O
n=10.12:O
c=sides:I-MISC
w[i]=captured
n=lowering:O
c=38.43:O
n=supreme:I-LOC
p=9-2-26-1:O
c=workplace:O
c=aiming:O
w[i]=practices
n=542:O
n=4746:O
w[i]=viewed
c=0400:O
w[i]=warrants
n=up:I-MISC
w[i]=nationalists
w[i]=accurately
c=bar-room:O
n=greece:I-PER
